#include <math.h>
#include <string.h>
//#include "./include/k2c_include.h"
#include "mnist_cnn.h"
#define K2C_RELU 0
#define K2C_SOFTMAX 1

void mnist_cnn(k2c_tensor* input_1_input, k2c_tensor* dense_output) {

    size_t conv2d_stride[2] = {1,1};
    size_t conv2d_dilation[2] = {1,1};
    #undef MAX_ARR_LENGTH

	//#define MAX_ARR_LENGTH 21632

    float conv2d_output_array[21632] = {0};
    //k2c_tensor conv2d_output = {&conv2d_output_array[0],3,21632,{26,26,32, 1, 1}};
    /*Initiated and manually assigned elements values*/
    //k2c_tensor conv2d_output = {0};
    for (size_t a = 0; a < 21632; ++a) {

        conv2d_output.array[a] = conv2d_output_array[a];
    }
    conv2d_output.ndim = 3;
    conv2d_output.numel = 21632;
    conv2d_output.shape[0] = 26;
    conv2d_output.shape[1] = 26;
    conv2d_output.shape[2] = 32;
    conv2d_output.shape[3] = 1;
    conv2d_output.shape[4] = 1;

    float dense_kernel_array[16000] = {
    -4.30143774e-02f,+3.68069075e-02f,-8.66456255e-02f,+1.08510271e-01f,+4.24041599e-02f,
    +2.39739623e-02f,-5.12720793e-02f,+4.54706959e-02f,-1.45759173e-02f,-1.70719579e-01f,
    +2.48444121e-04f,-3.72776426e-02f,-1.15611978e-01f,+4.28769439e-02f,+4.48211171e-02f,
    -1.26453206e-01f,+1.23520195e-01f,-2.55720094e-02f,+1.29425123e-01f,-1.43822834e-01f,
    +2.47858874e-02f,-2.24368274e-02f,-1.36083141e-01f,+4.83619832e-02f,-2.03410331e-02f,
    -1.50249051e-02f,+1.45326182e-01f,-1.72734875e-02f,+2.52514649e-02f,-1.29509032e-01f,
    +1.06604479e-01f,+4.65443470e-02f,+3.29144336e-02f,-1.74528453e-02f,+4.83611636e-02f,
    +7.78823644e-02f,-7.10103102e-03f,+7.58265564e-03f,-1.17137954e-01f,-2.81364657e-02f,
    -8.71707872e-02f,+1.11598998e-01f,-2.75224689e-02f,+1.55499920e-01f,+3.55038680e-02f,
    -4.92567010e-02f,+3.86910178e-02f,+3.98712903e-02f,-6.34949058e-02f,-3.66862640e-02f,
    -1.11183308e-01f,-5.09110689e-02f,+3.03107686e-02f,-1.41446386e-02f,-1.22620136e-01f,
    -1.50847569e-01f,-3.23378071e-02f,+1.45311207e-01f,-8.36445540e-02f,-3.43918562e-01f,
    +6.77243099e-02f,+3.22314464e-02f,-4.28168960e-02f,+4.40506637e-02f,-1.20530829e-01f,
    -3.87131684e-02f,-3.06707695e-02f,-3.42650823e-02f,+2.15951055e-02f,-6.45062327e-02f,
    -1.16630495e-01f,-5.65103963e-02f,+7.57768378e-02f,+4.21206169e-02f,-4.86034565e-02f,
    -2.02816144e-01f,-8.77236426e-02f,+1.37478679e-01f,-1.29327580e-01f,-2.33372688e-01f,
    -1.09230556e-01f,-8.45713615e-02f,+3.87193523e-02f,-5.60764223e-02f,-1.29003683e-02f,
    -1.86542556e-01f,-1.23772277e-02f,+1.14485182e-01f,-5.87503798e-02f,-2.85765707e-01f,
    -1.25190631e-01f,+1.15757212e-01f,-3.42028961e-03f,+3.01404782e-02f,-1.33318320e-01f,
    -1.08466357e-01f,+1.17259003e-01f,+5.44237532e-02f,-8.00430253e-02f,-9.42687467e-02f,
    +5.83493561e-02f,+1.70392305e-01f,+3.49321403e-03f,+2.87183020e-02f,+4.04706374e-02f,
    +1.49643663e-02f,-8.04435164e-02f,+6.76915273e-02f,-4.49898951e-02f,-8.92708227e-02f,
    +6.05253987e-02f,+8.93606991e-02f,-6.42593652e-02f,+9.91341472e-03f,+1.23662338e-01f,
    -7.77966604e-02f,-1.42258748e-01f,+9.33201239e-02f,-8.11464712e-02f,-1.23145662e-01f,
    +5.50451688e-02f,+1.20023536e-02f,+7.09477738e-02f,+6.30432218e-02f,+1.15053788e-01f,
    -7.96677917e-02f,-8.66836458e-02f,-5.19925542e-02f,-3.81359272e-02f,-1.38575574e-02f,
    -8.77106413e-02f,-1.49706215e-01f,-7.09675625e-03f,+1.61180228e-01f,-1.09928943e-01f,
    -1.61901072e-01f,+2.22188067e-02f,+1.39988720e-01f,-6.52960539e-02f,-1.33373633e-01f,
    -7.31794462e-02f,+1.99840330e-02f,+9.89697427e-02f,+1.16058020e-03f,-5.44559676e-03f,
    -2.05010787e-01f,-3.86475399e-02f,+7.71601498e-02f,-1.76375985e-01f,-3.12792920e-02f,
    +4.12881412e-02f,-1.09298170e-01f,+1.22294031e-01f,+4.54832688e-02f,-2.38437206e-02f,
    -5.25363311e-02f,+7.03483894e-02f,-1.85051829e-01f,+3.51526588e-02f,+5.86115308e-02f,
    +2.02623326e-02f,-2.20191181e-01f,-8.92670155e-02f,+6.27911016e-02f,-5.64877987e-02f,
    -1.35744661e-02f,+6.63079247e-02f,+9.61946175e-02f,-3.24509898e-03f,+2.69065052e-03f,
    -8.50041583e-02f,+3.39888744e-02f,-1.79850962e-02f,-1.20601039e-02f,+2.53903233e-02f,
    +1.21903289e-02f,+4.14795242e-02f,+4.97473255e-02f,-1.13049500e-01f,-1.78917065e-01f,
    -3.85379605e-02f,-9.96596515e-02f,+1.56463072e-01f,+6.23739734e-02f,-1.18303247e-01f,
    -1.84333622e-01f,+1.25921994e-01f,+2.44868584e-02f,+5.14044650e-02f,-3.99062224e-02f,
    -3.56434546e-02f,+1.55251235e-01f,-7.60068074e-02f,+1.29012123e-01f,+1.59797762e-02f,
    -3.54646030e-03f,+8.23687464e-02f,-1.00539185e-01f,+1.17768021e-02f,-2.28901252e-01f,
    +2.58706440e-03f,-1.06052324e-01f,+1.20540053e-01f,-4.42216657e-02f,+4.13937122e-03f,
    +1.76837981e-01f,+2.04966038e-01f,-9.95752439e-02f,+1.22877313e-02f,-1.50076911e-01f,
    -1.50686547e-01f,+9.02601518e-03f,-4.29619011e-03f,-2.67706849e-02f,-4.41424772e-02f,
    +1.64447948e-02f,+1.09299786e-01f,-7.39157721e-02f,-6.45096749e-02f,+2.96021551e-02f,
    -6.15748689e-02f,-2.44992469e-02f,+7.13871419e-02f,+1.29739940e-01f,+5.08043580e-02f,
    -1.69643223e-01f,+1.88230667e-02f,-1.15893222e-01f,+1.60745293e-01f,-1.79754347e-01f,
    -7.74790049e-02f,-1.75785586e-01f,-3.92852575e-02f,+7.93036893e-02f,+8.52479190e-02f,
    -1.68055028e-01f,+7.66424760e-02f,-1.23755433e-01f,+3.03492416e-02f,-2.59408657e-03f,
    -2.18361542e-02f,-7.23384097e-02f,-8.71505961e-02f,+1.03714056e-01f,+1.79336146e-02f,
    -4.95156944e-02f,+1.45032793e-01f,-1.42142221e-01f,+9.35724191e-03f,-7.41680339e-02f,
    +1.16564974e-01f,-3.48023362e-02f,+1.85501948e-02f,+1.09794177e-02f,-4.47921939e-02f,
    -1.16311528e-01f,-2.14510635e-01f,+5.67497360e-03f,-5.95874526e-02f,+2.30925363e-02f,
    -9.89085063e-02f,-5.83607405e-02f,+1.64354611e-02f,+1.33651987e-01f,+5.74071556e-02f,
    +2.17112899e-02f,-4.02451716e-02f,-8.27587247e-02f,-3.34055792e-03f,+3.27111036e-02f,
    -4.37775441e-02f,+8.22540671e-02f,-1.46824062e-01f,+1.64821092e-02f,+8.86470899e-02f,
    +6.24182597e-02f,+2.88254507e-02f,+5.03926799e-02f,-9.70510021e-02f,-1.82721898e-01f,
    -3.08064814e-03f,+1.89875793e-02f,-1.16260774e-01f,-7.45996535e-02f,+8.31313804e-03f,
    +1.18776001e-01f,+7.95462206e-02f,-6.14469126e-03f,+6.73156753e-02f,-2.95044541e-01f,
    +1.16563492e-01f,+2.20444612e-02f,-4.05474827e-02f,+1.09006427e-02f,-6.58598915e-02f,
    -1.33246724e-02f,-1.69550493e-01f,+5.91680147e-02f,-8.30900297e-02f,-6.20801114e-02f,
    -6.37467429e-02f,+1.13085106e-01f,-8.05160999e-02f,+2.63117496e-02f,-4.71036807e-02f,
    -6.23886064e-02f,+2.04199031e-02f,-2.02595927e-02f,+2.46815495e-02f,-1.01182766e-01f,
    +6.42143488e-02f,+8.17860290e-02f,-4.36387174e-02f,+7.85431638e-02f,+4.49729860e-02f,
    +4.78672273e-02f,-1.02862217e-01f,-1.20173814e-02f,-1.04937054e-01f,-5.14674112e-02f,
    +4.47594523e-02f,-1.30284354e-01f,-4.18132842e-02f,-1.45047088e-03f,-2.71412935e-02f,
    -4.54764394e-03f,+1.38366938e-01f,+2.93659102e-02f,+1.45664578e-02f,-3.20957717e-03f,
    -4.70448211e-02f,-5.94185665e-03f,+7.79007003e-02f,+1.33523926e-01f,-1.40281230e-01f,
    -4.82149050e-02f,-2.60883998e-02f,-7.92617723e-02f,-1.82015717e-01f,-7.08590401e-03f,
    +5.99921048e-02f,-3.01876776e-02f,-8.50136429e-02f,+2.73638219e-02f,-3.90770808e-02f,
    +6.65260702e-02f,+1.50457576e-01f,-9.64767765e-03f,-4.04337943e-02f,-1.12721464e-02f,
    -2.04585996e-02f,+1.59745693e-01f,-7.29861185e-02f,-4.56465594e-02f,-1.23835325e-01f,
    -4.78116795e-02f,-1.04872910e-02f,+1.51306102e-02f,+5.63911814e-03f,+1.07562773e-01f,
    +1.12389792e-02f,+1.26929656e-02f,+3.06265987e-03f,+6.24110252e-02f,+2.11696811e-02f,
    -3.63896750e-02f,+1.89411677e-02f,-8.80323574e-02f,+2.07082671e-03f,-1.04308948e-01f,
    -5.68042248e-02f,+2.13554874e-01f,-6.30567595e-02f,+1.30307898e-01f,+2.15872489e-02f,
    -3.12472377e-02f,-8.62825140e-02f,+5.90253249e-02f,-2.51487270e-02f,-1.75537229e-01f,
    -8.15063044e-02f,-9.89520457e-03f,+9.73926187e-02f,+1.04719311e-01f,-5.64891323e-02f,
    -3.55843663e-01f,+9.64026302e-02f,+5.51302508e-02f,-7.11183771e-02f,-1.58707246e-01f,
    +1.18751012e-01f,-4.86254692e-02f,-1.87792536e-02f,+4.18415805e-03f,-5.39046004e-02f,
    -1.97011773e-02f,-9.70534682e-02f,+6.71290532e-02f,+6.77456260e-02f,+6.02282956e-03f,
    -3.08484342e-02f,-4.93078269e-02f,-8.25438350e-02f,-9.19588655e-02f,+1.88381582e-01f,
    +1.25057697e-01f,+3.51435356e-02f,+3.44447419e-02f,-7.38782808e-02f,-1.89991578e-01f,
    +2.77274083e-02f,+9.28942021e-03f,-6.49806187e-02f,+5.90247661e-02f,+5.87424710e-02f,
    -1.40185326e-01f,-6.72125397e-03f,+3.87120023e-02f,-8.13405141e-02f,-1.81150764e-01f,
    -8.81616771e-02f,-2.96106637e-02f,-5.83475977e-02f,+1.13535458e-02f,-1.53420016e-01f,
    -6.86440095e-02f,+1.72950506e-01f,+5.67771308e-02f,+2.86866892e-02f,-8.88231844e-02f,
    -1.00443058e-01f,+1.67310476e-01f,-1.63303182e-01f,-1.41046820e-02f,+9.25975814e-02f,
    +4.98350151e-02f,+1.02564514e-01f,-2.23414246e-02f,-3.04519951e-01f,-1.69117644e-01f,
    -1.39171332e-01f,+6.88044950e-02f,-1.46258354e-01f,+5.96948415e-02f,+3.63870040e-02f,
    -2.13823356e-02f,+1.32831141e-01f,+4.44317758e-02f,-1.20854929e-01f,-1.72148943e-01f,
    +5.01898536e-03f,+1.23420015e-01f,-5.68082929e-02f,+8.21324438e-02f,+1.37787620e-02f,
    -8.01333264e-02f,+1.28379479e-01f,+4.34237570e-02f,-9.15296301e-02f,-2.67443568e-01f,
    -1.46450341e-01f,-5.74342459e-02f,+1.02658160e-01f,+1.38072511e-02f,-1.55196682e-01f,
    -2.81582743e-01f,+2.27394983e-01f,-5.80959953e-02f,-1.41545832e-01f,-1.37514994e-01f,
    -6.89680353e-02f,-1.02152236e-01f,+8.03650357e-03f,+1.77868735e-02f,-9.20910574e-03f,
    -1.09937139e-01f,-4.50505689e-02f,-5.06881848e-02f,+8.57866034e-02f,-2.33016014e-02f,
    +1.15393884e-01f,+2.06152886e-01f,-9.03817788e-02f,+1.51969418e-01f,-1.06007718e-02f,
    +5.46818925e-03f,-2.16980815e-01f,+7.63201118e-02f,-1.40797019e-01f,-4.63666543e-02f,
    -2.96394844e-02f,-5.56864329e-02f,-3.94474715e-02f,+9.69231781e-03f,-6.50772778e-03f,
    -4.30963971e-02f,+9.94188339e-03f,-1.96871143e-02f,-5.52789383e-02f,-2.12941375e-02f,
    -1.13624662e-01f,+1.85612626e-02f,-5.72470091e-02f,-3.71471047e-02f,+2.12374330e-02f,
    -4.62216698e-02f,+1.81384727e-01f,-1.22766227e-01f,+1.90933764e-01f,-2.36325994e-01f,
    +1.50422156e-02f,+6.93948790e-02f,-1.50124058e-01f,-6.92961663e-02f,+7.10514188e-02f,
    -2.80620232e-02f,+6.50592670e-02f,+6.73665777e-02f,+7.49783590e-02f,-2.05431536e-01f,
    -4.40066904e-02f,-5.25030233e-02f,-9.40644443e-02f,+1.58291221e-01f,-1.89374797e-02f,
    -6.94335699e-02f,+7.38304667e-03f,+6.44466057e-02f,-5.76148257e-02f,-5.64840250e-02f,
    -4.97261845e-02f,-1.23350278e-01f,+1.37868279e-04f,+1.46356836e-01f,+9.48251709e-02f,
    -7.65562430e-02f,+6.84268912e-03f,-1.19584352e-01f,+1.62816495e-02f,-1.14858218e-01f,
    -3.09675802e-02f,+9.14951414e-03f,-4.67793830e-02f,-3.34268212e-02f,+7.03984797e-02f,
    +1.30835110e-02f,-1.17131576e-01f,+5.60648106e-02f,-1.55215645e-02f,-1.30087985e-02f,
    -1.53511402e-03f,-1.17882021e-01f,+1.20757475e-01f,+1.16654066e-02f,-5.02569973e-02f,
    -9.48617142e-03f,-2.69624777e-02f,-1.66176837e-02f,+1.92105523e-04f,+9.91132632e-02f,
    +1.48816197e-03f,-1.46762645e-02f,-1.41925672e-02f,-4.01352160e-03f,-4.81009595e-02f,
    -2.21858006e-02f,-8.96761101e-03f,+4.83122841e-02f,+5.56146167e-02f,+4.36143503e-02f,
    -3.55535485e-02f,+1.31379947e-01f,-4.73852009e-02f,+7.68664703e-02f,-5.33301271e-02f,
    -7.42404237e-02f,-9.41557586e-02f,-2.09775660e-02f,+2.10151616e-02f,+6.50516450e-02f,
    -5.84094003e-02f,-1.76466573e-02f,+1.42880782e-01f,-3.70212197e-02f,-1.14489026e-01f,
    -1.37706965e-01f,+7.73711130e-02f,-7.36683160e-02f,-1.56886697e-01f,-9.17392150e-02f,
    +1.24454382e-03f,-3.37300032e-01f,+6.00721650e-02f,+7.97195807e-02f,-8.47503692e-02f,
    -1.71927825e-01f,+9.81069505e-02f,-9.02775601e-02f,-5.41013246e-03f,+3.63605097e-02f,
    -5.06065041e-02f,+1.16878845e-01f,-7.50456229e-02f,+7.35379755e-02f,-4.05606516e-02f,
    -3.00748255e-02f,+6.68170378e-02f,-8.08873251e-02f,-8.58635735e-03f,-2.31725916e-01f,
    +3.49236876e-02f,+1.57824144e-01f,+1.24186594e-02f,-7.18620792e-02f,-2.97009293e-02f,
    -1.18207060e-01f,-4.77676466e-02f,-1.04160182e-01f,-3.22639495e-02f,+1.99251305e-02f,
    -8.59819949e-02f,-4.68784757e-02f,+1.00492230e-02f,+7.52075911e-02f,+1.55225387e-02f,
    +1.02443174e-02f,-3.49157155e-02f,-5.14058284e-02f,-5.52370511e-02f,-7.76201561e-02f,
    +3.04016992e-02f,-1.28982797e-01f,-2.43718661e-02f,-1.94773711e-02f,-3.93489972e-02f,
    -5.49494885e-02f,+6.46998361e-02f,-4.00921144e-02f,+3.47695127e-02f,+2.64516808e-02f,
    -1.46549866e-01f,+2.70148013e-02f,+6.56117871e-02f,+1.25090793e-01f,+1.93529278e-01f,
    +7.46362209e-02f,-1.44858286e-01f,+1.19196609e-01f,-1.07410125e-01f,-3.61965775e-01f,
    -1.12096243e-01f,-9.13382620e-02f,-7.95054734e-02f,-3.27915847e-02f,+5.64794429e-02f,
    +1.41573131e-01f,+1.30323991e-01f,+7.58434087e-02f,-1.13537021e-01f,-2.47255921e-01f,
    -6.33227173e-03f,+5.76732717e-02f,-9.46191922e-02f,-4.55907546e-02f,+1.08693101e-01f,
    +8.08254108e-02f,+1.18829913e-01f,+7.88849220e-02f,-7.97839016e-02f,-1.53253183e-01f,
    +8.20132494e-02f,-3.57503518e-02f,+4.89823446e-02f,+3.49223893e-03f,-1.03076519e-02f,
    -1.12601385e-01f,-4.43241447e-02f,+5.04872948e-03f,-2.40535289e-02f,-5.94915003e-02f,
    -5.09736538e-02f,-8.06153789e-02f,+2.02845216e-01f,-2.11645663e-02f,-5.55746779e-02f,
    -1.46208960e-03f,-9.72566009e-02f,-2.78782519e-03f,-1.14233524e-01f,-8.99859816e-02f,
    -2.52991110e-01f,+7.14624971e-02f,+6.63929479e-03f,+7.14769438e-02f,+8.80892426e-02f,
    -1.24072872e-01f,-2.09858179e-01f,+5.92112727e-02f,-4.77549732e-02f,-2.53808528e-01f,
    +1.48070138e-03f,+6.37152046e-02f,-4.74714525e-02f,-6.02141814e-03f,+1.08867772e-02f,
    -5.58439083e-02f,-5.68834357e-02f,+8.19061771e-02f,-8.40125456e-02f,-1.47111163e-01f,
    -1.16722092e-01f,-2.77952906e-02f,+5.84702641e-02f,+6.59938483e-03f,-1.47811860e-01f,
    -1.24059794e-02f,+5.41637875e-02f,+3.44988964e-02f,+4.23579149e-05f,+2.17982288e-02f,
    -2.91893691e-01f,-4.46728840e-02f,+3.29303667e-02f,+3.91805246e-02f,+1.09479658e-01f,
    -2.03066871e-01f,-1.02217771e-01f,+2.08903983e-01f,-5.18998913e-02f,-1.40654534e-01f,
    -2.07805663e-01f,+2.46934127e-02f,-1.30677462e-01f,+1.03614673e-01f,+1.27165496e-01f,
    -1.35343090e-01f,+2.38977924e-01f,-6.69383481e-02f,-6.09750375e-02f,-3.73118311e-01f,
    -4.86988276e-02f,-1.56862326e-02f,-1.71744805e-02f,+2.08521206e-02f,+3.75431925e-02f,
    -1.34611428e-02f,-1.77223071e-01f,+3.78147550e-02f,-8.85417983e-02f,-6.63670385e-03f,
    -7.20267221e-02f,-6.17104098e-02f,-5.87168671e-02f,+1.49054714e-02f,+6.35809004e-02f,
    +2.07131784e-02f,-5.17436005e-02f,+9.65833589e-02f,-3.90143618e-02f,-8.50470960e-02f,
    +3.39181139e-03f,-1.00525424e-01f,+5.64361811e-02f,-1.67759266e-02f,-5.77088632e-02f,
    +8.61308426e-02f,+5.75169995e-02f,+4.40932624e-03f,-3.99919078e-02f,+8.59391987e-02f,
    -2.17000991e-01f,-5.16910513e-04f,-1.44486334e-02f,+6.21319339e-02f,-5.29397428e-02f,
    -1.06815763e-01f,-1.26818895e-01f,+5.21539934e-02f,+4.16979846e-03f,+2.61314195e-02f,
    -2.31717750e-02f,-1.21539176e-01f,+9.94167328e-02f,+2.57161930e-02f,-1.73588432e-02f,
    -2.14092672e-01f,-2.56261379e-01f,+1.15766898e-01f,+3.19493329e-03f,+9.50034522e-03f,
    -8.83084629e-03f,-1.21518016e-01f,+1.37301916e-02f,+8.07902217e-03f,-3.54782254e-01f,
    -2.88541745e-02f,-1.42526075e-01f,+1.20186750e-02f,+3.35104614e-02f,+1.56179994e-01f,
    +1.89568028e-02f,-1.63803548e-02f,+2.02658996e-02f,-6.14503138e-02f,+1.04230575e-01f,
    -3.41242254e-02f,+5.63250445e-02f,+1.15047740e-02f,-2.28962228e-02f,+6.35687038e-02f,
    -1.01094387e-01f,+8.17314461e-02f,+1.54145867e-01f,+9.55934301e-02f,-6.80294931e-02f,
    +4.16745730e-02f,-2.88908929e-02f,-1.07489005e-01f,+1.81230549e-02f,-1.23738065e-01f,
    -4.60450575e-02f,-7.11997822e-02f,+1.32060885e-01f,+1.37838796e-02f,-7.77812600e-02f,
    -7.33141080e-02f,+1.41213993e-02f,-7.53332227e-02f,+1.32706463e-01f,-7.79137990e-05f,
    -1.18642271e-01f,+9.04880017e-02f,+3.67402434e-02f,+5.98628968e-02f,+6.65056780e-02f,
    +8.99003632e-03f,+9.47810186e-05f,-2.34093214e-03f,-1.36263426e-02f,-2.03919053e-01f,
    +9.68216434e-02f,-6.62638322e-02f,+1.25945449e-01f,+7.32558407e-03f,+1.59719773e-02f,
    +9.49460920e-03f,+6.76483810e-02f,-2.64037624e-02f,-4.88912202e-02f,-1.33328944e-01f,
    -2.52827168e-01f,-6.63069189e-02f,-5.89972287e-02f,-1.84030887e-02f,+9.14518908e-02f,
    -9.39722285e-02f,+3.82226050e-01f,-1.27304599e-01f,-1.10064790e-01f,-2.78542757e-01f,
    -2.56857257e-02f,-1.88241675e-01f,+2.63148099e-02f,-2.23395284e-02f,-1.85682010e-02f,
    -1.34359989e-02f,+1.05884030e-01f,-4.06083912e-02f,+2.75180768e-02f,+5.79953417e-02f,
    +4.87063639e-02f,-6.46157116e-02f,+8.70111436e-02f,+5.59858941e-02f,-6.79939538e-02f,
    -5.62825091e-02f,-2.15958487e-02f,-1.16182856e-01f,+7.07136169e-02f,+1.01330429e-01f,
    +9.73057523e-02f,-6.54174909e-02f,+1.55235669e-02f,-6.11148216e-02f,+3.79519016e-02f,
    +4.18400913e-02f,+2.05516681e-01f,+2.08801925e-02f,-2.78497394e-02f,-1.06779478e-01f,
    -1.15660779e-01f,-2.03882053e-01f,-7.86080211e-02f,+1.08232789e-01f,+3.65277287e-03f,
    -2.43104883e-02f,-1.40087873e-01f,-2.36564372e-02f,+7.57049620e-02f,+1.06736884e-01f,
    -1.99543029e-01f,-1.98801726e-01f,+2.20433827e-02f,+3.43259200e-02f,-2.50681601e-02f,
    -1.15129061e-01f,+1.43282011e-01f,-5.81857637e-02f,+1.68151185e-01f,-2.00131148e-01f,
    -1.33826971e-01f,+5.70253171e-02f,-5.17856851e-02f,+8.42722878e-02f,+3.87007482e-02f,
    +1.26489058e-01f,-8.18947256e-02f,+2.23922253e-01f,-2.52503399e-02f,-2.96588004e-01f,
    -1.90083146e-01f,+1.07455142e-01f,-6.26844838e-02f,+1.52979925e-01f,+9.31157917e-02f,
    +1.05399847e-01f,-8.47670808e-02f,-3.07203848e-02f,-4.17468064e-02f,-3.99162829e-01f,
    +3.26168686e-02f,-5.24439439e-02f,+4.92539536e-03f,-3.64203355e-03f,-8.20715427e-02f,
    +3.46160121e-02f,-2.54168779e-01f,+1.40956730e-01f,+4.53857332e-02f,-1.10770091e-02f,
    -9.77517143e-02f,+1.07843496e-01f,-8.60395357e-02f,+1.05082363e-01f,-7.22025856e-02f,
    -1.63589835e-01f,-1.51783964e-02f,-8.10571853e-03f,+1.66367386e-02f,-1.00162700e-01f,
    +1.12047896e-01f,-6.35150149e-02f,+7.92776495e-02f,+4.85357940e-02f,-1.04951508e-01f,
    +1.36218712e-01f,-6.18168563e-02f,+4.09819186e-02f,-1.04947746e-01f,-5.12351207e-02f,
    -4.27408069e-02f,+1.70402899e-01f,+2.19274685e-02f,-8.41239393e-02f,-9.48321191e-04f,
    +5.88275082e-02f,+7.68905953e-02f,+1.21680558e-01f,-1.05338246e-01f,-1.85383663e-01f,
    -1.50896564e-01f,-8.92171040e-02f,+7.64083639e-02f,+9.78737548e-02f,+5.34319207e-02f,
    -1.40871286e-01f,+3.68467979e-02f,+6.29546447e-03f,-6.35854080e-02f,-7.32232407e-02f,
    +6.39741123e-03f,-1.16125040e-01f,-2.94085406e-02f,-2.26903930e-02f,-1.34202287e-01f,
    +5.76124936e-02f,-4.41345535e-02f,-5.32722734e-02f,-4.54305597e-02f,+7.97543153e-02f,
    +7.74840415e-02f,-7.45887831e-02f,+1.19293258e-01f,+5.94871060e-04f,-9.69295800e-02f,
    -6.87017813e-02f,-1.44403894e-02f,-1.36380747e-01f,-8.71951729e-02f,+7.34779611e-02f,
    +3.67905609e-02f,-1.53086483e-01f,+1.77556574e-02f,-2.29620934e-02f,-2.64869109e-02f,
    +3.90375219e-02f,+2.87066330e-03f,-8.40169787e-02f,+1.05168611e-01f,-3.03398538e-02f,
    +1.02022193e-01f,+1.11876503e-02f,+1.05829172e-01f,-1.48054874e-02f,-7.14272708e-02f,
    +2.72330027e-02f,-7.44339973e-02f,-2.87002865e-02f,-1.36926085e-01f,-1.04590610e-01f,
    -1.99686408e-01f,-1.73050091e-01f,+1.64861068e-01f,+1.59465268e-01f,+3.05490438e-02f,
    -3.79166991e-01f,-1.33096412e-01f,+8.59139413e-02f,+1.32381450e-02f,+4.15102877e-02f,
    -9.46370214e-02f,-6.04857504e-02f,-3.94572923e-03f,+4.93673347e-02f,+5.09088766e-03f,
    -1.24328351e-02f,-1.50911182e-01f,+3.27019170e-02f,+5.26708439e-02f,+1.07125111e-01f,
    -1.01211265e-01f,+1.76130012e-01f,-1.32314548e-01f,+7.72100464e-02f,-5.68770505e-02f,
    -1.11149244e-01f,+5.93451858e-02f,+5.64500429e-02f,+1.10715115e-02f,-2.05917656e-01f,
    -4.09198217e-02f,-1.25513738e-02f,+3.23581174e-02f,-1.75511241e-02f,-7.94881210e-02f,
    -1.08157648e-02f,-4.19312343e-02f,+7.80149736e-03f,+8.34002346e-02f,+9.44792628e-02f,
    -7.28253135e-03f,-3.54629345e-02f,-6.71713799e-02f,+7.90487975e-02f,-4.12687734e-02f,
    -3.73406596e-02f,+1.82480976e-01f,+3.54186334e-02f,+1.12709925e-01f,-3.48131776e-01f,
    -1.69295549e-01f,+1.55030936e-01f,-1.77045375e-01f,+1.79514110e-01f,+9.81370360e-02f,
    -2.08528697e-01f,+2.26722762e-01f,+9.82176289e-02f,-2.13070199e-01f,-5.68621814e-01f,
    -1.84856996e-01f,+9.97968689e-02f,-1.31199062e-01f,+1.66915864e-01f,-4.26404551e-03f,
    +8.41337517e-02f,+6.78047389e-02f,+1.62999541e-01f,-1.22653082e-01f,-1.32160172e-01f,
    -7.07086101e-02f,+1.69329002e-01f,-4.74027470e-02f,+5.18963896e-02f,+1.70218468e-01f,
    +1.21399555e-02f,+9.34421048e-02f,-2.35972162e-02f,-1.23188801e-01f,-4.95032579e-01f,
    -2.21751496e-01f,+4.22468409e-02f,+1.29019573e-01f,+1.78642899e-01f,+1.60621136e-01f,
    -3.45301747e-01f,-1.84385195e-01f,+7.75618106e-02f,+1.36225000e-01f,-2.89157808e-01f,
    -3.37394588e-02f,-2.72944961e-02f,-1.12334840e-01f,+2.36959290e-02f,-8.43337923e-02f,
    +8.15224349e-02f,-1.07849769e-01f,-2.01076292e-03f,+1.41610054e-03f,+4.41447236e-02f,
    -2.53258329e-02f,-1.63924340e-02f,+2.33191568e-02f,-1.58173003e-04f,+3.36203016e-02f,
    +4.86032255e-02f,-2.28259444e-01f,+6.55755699e-02f,-8.06001872e-02f,-1.21400371e-01f,
    +3.04116029e-02f,-6.67689294e-02f,+7.68350530e-03f,+5.63087091e-02f,-6.10157326e-02f,
    +4.52020615e-02f,-6.92563131e-02f,+2.54390668e-02f,+8.38235170e-02f,+4.90947589e-02f,
    -6.27993420e-02f,-2.88680762e-01f,-3.26273814e-02f,-9.86752957e-02f,+1.05265446e-01f,
    -5.58348186e-02f,+1.43300220e-01f,+4.30856459e-03f,-2.10602488e-02f,-1.64555889e-02f,
    -6.70139864e-02f,+1.36371657e-01f,+8.33282247e-02f,-7.69277215e-02f,-3.83535437e-02f,
    +1.01085909e-01f,-9.40758958e-02f,+1.26908153e-01f,-9.74104274e-03f,-2.55546212e-01f,
    -6.08747788e-02f,-1.14613116e-01f,+5.58639653e-02f,-8.39280412e-02f,+3.01866010e-02f,
    +6.62074387e-02f,+1.43106192e-01f,-1.62584558e-01f,-2.95462068e-02f,-1.92275703e-01f,
    +3.07272119e-03f,+5.06583452e-02f,+8.43022391e-02f,+8.37612674e-02f,-1.43901501e-02f,
    -8.99076983e-02f,+3.08135655e-02f,-6.84682578e-02f,+2.46992670e-02f,-4.33084108e-02f,
    -5.31388856e-02f,-6.39436767e-02f,+7.12174922e-03f,+1.08676245e-02f,+2.81752124e-02f,
    +4.50372100e-02f,-1.61744460e-01f,+2.34921109e-02f,-5.41973952e-03f,+3.92444320e-02f,
    -3.13819107e-03f,-1.27295837e-01f,+3.85884345e-02f,+3.43893655e-02f,-3.69049087e-02f,
    -7.30534270e-02f,+6.68049231e-02f,+3.66285928e-02f,+4.44936976e-02f,+1.00671351e-02f,
    -7.74937123e-02f,+1.68911610e-02f,-1.15077913e-01f,+3.45771834e-02f,+6.82335868e-02f,
    +4.87223789e-02f,-1.43559739e-01f,+4.29800451e-02f,-8.46697111e-03f,-2.48036385e-02f,
    -1.47584140e-01f,-9.89496633e-02f,+2.06945613e-01f,-4.02824394e-02f,-1.61128834e-01f,
    -2.90733188e-01f,-7.09417975e-03f,-1.67292371e-01f,-3.16794664e-02f,+1.07588628e-02f,
    -2.24843740e-01f,-1.87856793e-01f,+2.27447957e-01f,+2.95200618e-03f,-2.00400770e-01f,
    -2.25111157e-01f,+1.04694337e-01f,-1.69122711e-01f,-9.01164208e-03f,-1.19603716e-01f,
    +1.56096155e-02f,-1.08701400e-01f,+7.17395276e-04f,+2.62608603e-02f,-1.05147988e-01f,
    -3.19324248e-02f,-4.39948542e-03f,-8.55777636e-02f,+3.14972326e-02f,+5.81731945e-02f,
    +2.24541910e-02f,+7.89263546e-02f,-4.88609336e-02f,+4.23235670e-02f,-1.00706860e-01f,
    -2.22595921e-03f,+7.57416561e-02f,+5.58886901e-02f,-8.03131908e-02f,-1.11517794e-01f,
    +7.99725950e-02f,+1.52693957e-01f,-8.53410438e-02f,-7.76183233e-02f,-1.38802260e-01f,
    -4.28947853e-03f,+6.50840253e-02f,-1.21459611e-01f,-1.07021518e-01f,+7.26653039e-02f,
    -3.77796292e-02f,-9.01257433e-03f,-3.31997946e-02f,+4.55896966e-02f,-8.83359388e-02f,
    +6.05696626e-02f,+3.31379175e-02f,+4.45171371e-02f,-1.37519985e-02f,-2.49952916e-03f,
    -3.19317915e-02f,+1.02208005e-02f,+1.87527332e-02f,-5.23407944e-03f,-9.32178125e-02f,
    +8.24083760e-02f,-2.70020794e-02f,+1.19835399e-02f,+4.18810733e-02f,+7.63722509e-02f,
    -1.26172110e-01f,+1.37516260e-02f,+9.30761620e-02f,+3.32540609e-02f,-9.79414303e-03f,
    -1.33480087e-01f,-1.51854843e-01f,-6.04154766e-02f,-6.13311976e-02f,-3.77622694e-02f,
    -2.05432028e-02f,+1.77743077e-01f,-1.57960430e-01f,-1.69225127e-01f,+1.17233410e-01f,
    +2.39414126e-01f,+6.68661073e-02f,-5.89068048e-03f,-1.50031289e-02f,-2.41457015e-01f,
    -6.32512346e-02f,+1.08656637e-01f,-1.30255416e-01f,-1.08810954e-01f,+9.71514210e-02f,
    +2.03375623e-01f,+3.68859917e-02f,-7.95072988e-02f,-1.10315084e-01f,-2.00208083e-01f,
    +1.14270663e-02f,+1.27197348e-03f,-1.97725147e-02f,+8.50451365e-02f,-8.62438455e-02f,
    -1.46692749e-02f,-5.49534447e-02f,+6.33611158e-02f,+4.28809486e-02f,+7.12008774e-02f,
    +3.80791202e-02f,-9.89601985e-02f,+1.87233895e-01f,+4.21847217e-02f,-7.06443265e-02f,
    -1.48887604e-01f,-1.96411517e-02f,-6.81279227e-02f,-5.39924540e-02f,+1.37156025e-01f,
    -7.63993487e-02f,-5.75189926e-02f,-2.14482248e-02f,+1.66534092e-02f,-3.85833308e-02f,
    -2.47518066e-02f,-1.32105455e-01f,+8.39199945e-02f,-2.49810927e-02f,+1.08331591e-01f,
    +2.64951563e-03f,-4.45766486e-02f,-2.47264262e-02f,+2.95388475e-02f,+5.33275120e-02f,
    -5.06295376e-02f,-1.56014254e-02f,+2.50833780e-02f,-2.45833397e-02f,-1.03084110e-02f,
    +4.27354015e-02f,-2.61966418e-03f,+6.12296686e-02f,-6.46109581e-02f,-2.77860433e-01f,
    -1.55748567e-02f,+1.35122640e-02f,+1.56034972e-03f,-4.57960218e-02f,-2.98769232e-02f,
    -1.22640990e-01f,+7.03993887e-02f,+2.99123302e-02f,+5.70108965e-02f,-1.85307339e-01f,
    -1.87089331e-02f,-7.86325932e-02f,+1.26101941e-01f,-6.40244856e-02f,+6.67057582e-04f,
    -9.54343304e-02f,+1.19373910e-01f,+4.20443825e-02f,+1.05128013e-01f,+1.77782759e-01f,
    -2.10770398e-01f,+1.91684693e-01f,-1.82729378e-01f,-9.66885984e-02f,-3.81113231e-01f,
    +1.72796156e-02f,+3.56346071e-02f,+1.94172785e-02f,+5.93425222e-02f,-6.00273423e-02f,
    -3.56556140e-02f,-1.13992773e-01f,+9.41579044e-03f,-8.24637525e-03f,+2.74775587e-02f,
    +2.34677214e-02f,+1.80755705e-02f,-4.34841029e-02f,-6.28740108e-03f,-1.92415528e-02f,
    -6.06458709e-02f,-1.26330063e-01f,+4.73700874e-02f,-1.78950224e-02f,-2.59917183e-03f,
    +5.18980362e-02f,-1.28496081e-01f,+1.59083530e-02f,+5.54672331e-02f,-6.29139841e-02f,
    +5.29465601e-02f,-5.31539544e-02f,+4.74141873e-02f,+3.87115143e-02f,+9.69966128e-02f,
    -7.80929551e-02f,+1.15795285e-02f,+1.69212203e-02f,+5.70295341e-02f,-2.88854539e-01f,
    +3.70420292e-02f,-2.02399537e-01f,+1.35204583e-01f,+9.37912706e-03f,+9.09059122e-02f,
    -4.29148600e-02f,-2.25158215e-01f,-2.72604637e-02f,+1.46264032e-01f,-1.09118372e-01f,
    -2.32007857e-02f,-2.18697250e-01f,+8.46362412e-02f,+4.13439162e-02f,+1.11303620e-01f,
    -7.91486278e-02f,-3.95466797e-02f,+1.30694825e-02f,+4.06217575e-02f,-3.39728326e-01f,
    +5.72283715e-02f,+1.77673195e-02f,+6.09824434e-03f,+6.94529116e-02f,+2.02470664e-02f,
    -5.95415346e-02f,+8.75019580e-02f,-5.73971830e-02f,-2.26412177e-01f,+1.34971263e-02f,
    +5.79397269e-02f,+9.81821343e-02f,-1.55670092e-01f,-1.00766532e-02f,+2.87834480e-02f,
    -2.08867416e-01f,-1.22125082e-01f,+2.04567641e-01f,-3.62192206e-02f,-4.33436508e-04f,
    -1.23613998e-01f,-1.68076437e-02f,-1.31926328e-01f,-7.97621608e-02f,-1.11518331e-01f,
    -6.07502600e-03f,+6.28120899e-02f,+7.83624053e-02f,+1.42474184e-02f,-1.58575736e-02f,
    -3.98051627e-02f,-1.21628352e-01f,-5.88259995e-02f,+2.74237692e-02f,+3.58629599e-02f,
    -9.92569402e-02f,-3.21848430e-02f,+1.03562765e-01f,+9.45742875e-02f,+7.97807425e-03f,
    -2.15102240e-01f,-5.62630147e-02f,+8.99621099e-03f,+7.28246048e-02f,+9.86425951e-02f,
    -9.26016178e-03f,+1.92145314e-02f,+5.36179692e-02f,-1.68110523e-02f,+1.52854577e-01f,
    -1.24150410e-01f,+4.46660183e-02f,-5.57918213e-02f,-5.98672070e-02f,-4.99510728e-02f,
    -2.53146976e-01f,+1.84882700e-01f,+2.82604806e-02f,-7.49374682e-04f,+1.02720760e-01f,
    -1.86127603e-01f,+3.14708382e-01f,-3.67826343e-01f,-9.97234955e-02f,-3.25852543e-01f,
    +8.95039365e-02f,+2.68462114e-02f,+3.43105793e-02f,-3.16432342e-02f,+1.70626380e-02f,
    +6.07168302e-03f,-7.66388560e-03f,-9.20886993e-02f,-2.23735292e-02f,+2.44503450e-02f,
    +1.90475713e-02f,+1.77059826e-02f,+1.36893332e-01f,+6.45028194e-03f,-6.23352528e-02f,
    +2.25967169e-03f,+1.12728700e-02f,-1.58915296e-01f,-1.61871910e-02f,+6.61326759e-03f,
    -6.04177043e-02f,+9.53505784e-02f,-1.02346197e-01f,-7.40890354e-02f,+1.86071411e-01f,
    +1.50541544e-01f,+8.42022970e-02f,+1.60379633e-02f,-8.70871097e-02f,-1.94445685e-01f,
    -7.42245987e-02f,-2.99645937e-03f,-9.46437046e-02f,+9.35894027e-02f,-1.23976953e-01f,
    -2.89749703e-03f,-1.28172070e-01f,-1.16700970e-01f,-5.64996805e-03f,+1.63541198e-01f,
    -1.01408742e-01f,-5.65185286e-02f,+1.58327356e-01f,+4.41997945e-02f,-1.46692470e-01f,
    -4.79439050e-02f,+2.92467102e-02f,-2.26542987e-02f,+2.79513001e-02f,+4.81373779e-02f,
    -1.04412949e-02f,+1.86253324e-01f,+2.46963277e-02f,-1.37918610e-02f,+1.04621708e-01f,
    +1.02941535e-01f,-1.34493589e-01f,+1.56710982e-01f,-7.38189742e-02f,-2.14716062e-01f,
    -1.71804607e-01f,+1.46753773e-01f,+5.06960116e-02f,+1.42650843e-01f,+1.44393042e-01f,
    -6.29283115e-02f,+5.43093793e-02f,-2.64155149e-01f,+1.37201268e-02f,-4.44157183e-01f,
    +7.98821002e-02f,-8.43261257e-02f,+5.49216084e-02f,+1.10747017e-01f,-8.07484165e-02f,
    -7.36645684e-02f,-3.69771093e-01f,-7.61560295e-05f,-4.47372831e-02f,-5.60892327e-03f,
    +2.64440011e-03f,-2.40233056e-02f,+6.28187209e-02f,-4.29519510e-04f,-1.12294883e-01f,
    +1.26513261e-02f,-9.82974172e-02f,-3.53209451e-02f,-1.59326531e-02f,-5.61632868e-03f,
    +6.66518658e-02f,-9.04338807e-02f,+1.52376657e-02f,+1.94156356e-02f,-1.98711529e-01f,
    +4.89348732e-02f,-1.55665532e-01f,+6.10920414e-02f,+2.18294486e-02f,+6.15297072e-02f,
    -1.50274649e-01f,+1.68693557e-01f,-6.29864559e-02f,-1.13476053e-01f,+2.00131431e-01f,
    +3.81777212e-02f,+1.24581598e-01f,-2.66786993e-01f,-1.06376588e-01f,-2.24914193e-01f,
    -5.42039722e-02f,+9.71543118e-02f,-4.95550781e-02f,+1.88765060e-02f,-2.70593077e-01f,
    +5.71651720e-02f,-8.63902420e-02f,-2.11496148e-02f,+3.86591479e-02f,+8.48978832e-02f,
    +3.80779952e-02f,+8.92351940e-02f,+4.53092298e-03f,+2.62436159e-02f,-1.82245791e-01f,
    +6.67491406e-02f,+1.48131074e-02f,-4.53809425e-02f,+1.69914514e-02f,-7.80146644e-02f,
    +8.58901143e-02f,+9.76986811e-03f,+4.57901917e-02f,+3.50941420e-02f,-3.54599327e-01f,
    -1.85919374e-01f,-9.36263502e-02f,-2.47539226e-02f,+6.86017424e-02f,+8.72255489e-02f,
    +6.21659048e-02f,+2.84937341e-02f,+6.26903102e-02f,-5.52350953e-02f,-9.58328247e-02f,
    +1.04461931e-01f,-4.00870852e-02f,-1.74267795e-02f,+5.91628253e-02f,-4.44561839e-02f,
    +5.39522767e-02f,-1.42202839e-01f,+6.79690614e-02f,+5.20361261e-03f,-2.06873700e-01f,
    -6.47749975e-02f,-2.55407263e-02f,+8.71745497e-02f,+8.28132499e-03f,+9.75145996e-02f,
    -6.27592281e-02f,-2.13513314e-03f,+1.04516827e-01f,+1.58864930e-01f,-1.57088876e-01f,
    -2.23361984e-01f,-9.00967047e-02f,+1.45734102e-01f,+6.85631558e-02f,+7.77607970e-03f,
    +2.89991796e-02f,+1.07437689e-02f,+2.19878852e-02f,+2.98918858e-02f,-4.19295616e-02f,
    -3.28483693e-02f,-1.18800558e-01f,-8.74586590e-03f,+6.15247041e-02f,+1.07379584e-02f,
    -1.12083249e-01f,+1.18247746e-02f,+7.17323944e-02f,-2.81961281e-02f,-1.15802124e-01f,
    -9.02939215e-02f,+8.36540833e-02f,+4.91234511e-02f,-4.71337931e-03f,+6.46556308e-03f,
    +5.41335382e-02f,-1.13441534e-02f,+6.71491176e-02f,+7.03869089e-02f,-3.13986778e-01f,
    -4.76276390e-02f,-1.62867293e-01f,+1.39022656e-02f,+8.50751810e-03f,-9.96435061e-03f,
    -6.94505172e-03f,-2.74013393e-02f,-7.51330256e-02f,-5.70872501e-02f,+1.73432380e-01f,
    -8.80251005e-02f,+2.02792898e-01f,-1.88387260e-01f,-9.25892666e-02f,-3.91307026e-01f,
    -4.19044085e-02f,+9.80465487e-02f,+1.34501487e-01f,+7.08616572e-04f,+6.66612536e-02f,
    -2.31952276e-02f,+1.07955381e-01f,+5.13185114e-02f,-2.66229123e-01f,-3.26002657e-01f,
    +2.07605623e-02f,+1.64616704e-01f,+1.61270648e-02f,-4.22363803e-02f,+4.95356657e-02f,
    +7.13199899e-02f,-2.42776386e-02f,+1.41765296e-01f,-1.49666384e-01f,+4.50350763e-03f,
    -3.85658853e-02f,+9.73679423e-02f,+8.93242434e-02f,-5.30594587e-02f,+1.26513183e-01f,
    -1.69834867e-01f,+3.38537619e-02f,+1.73414182e-02f,+1.28592942e-02f,-1.38394758e-01f,
    -1.18475407e-01f,-2.68182922e-02f,+3.08498368e-02f,+2.17934877e-01f,+1.00157991e-01f,
    -2.83647954e-01f,-1.56450033e-01f,+1.42406031e-01f,+8.08837786e-02f,-2.62633741e-01f,
    -4.97170240e-02f,-1.12949777e-02f,+3.04263495e-02f,+8.54730085e-02f,-3.70148309e-02f,
    +3.08443010e-02f,-1.14679612e-01f,+4.64072526e-02f,-1.80692337e-02f,+8.10943693e-02f,
    +8.17528814e-02f,-3.63720134e-02f,+4.60284427e-02f,+7.83523843e-02f,-7.71062972e-04f,
    -4.85252850e-02f,-2.26644874e-01f,+5.84004037e-02f,-2.31084675e-02f,+1.10377613e-02f,
    -1.89214933e-03f,-3.18237096e-02f,+3.02689783e-02f,+3.42288353e-02f,-8.53761658e-02f,
    -2.22133985e-03f,-1.32409483e-01f,+5.47419898e-02f,-3.09369789e-04f,+4.83185016e-02f,
    -2.26355568e-02f,+2.34171357e-02f,-3.20758633e-02f,-1.64113060e-01f,+1.65140375e-01f,
    -5.93445357e-03f,+6.02970123e-02f,+1.48983732e-01f,-6.88537434e-02f,-1.94959596e-01f,
    +5.20485006e-02f,+9.00977403e-02f,-3.39544155e-02f,-9.54886749e-02f,-1.15062155e-01f,
    -3.73222083e-02f,-4.09221388e-02f,+4.62834425e-02f,+6.47665784e-02f,+1.69480462e-02f,
    -5.14290556e-02f,+5.06917574e-02f,-1.08300850e-01f,+6.71437979e-02f,-3.07762325e-02f,
    +1.49711901e-02f,+1.09979607e-01f,-1.08610421e-01f,+7.43942801e-03f,-3.92094702e-02f,
    -2.36953259e-03f,+1.88247543e-02f,+3.27164754e-02f,-1.07116140e-01f,-5.83682992e-02f,
    +8.93610436e-03f,+1.31493866e-01f,-1.55412480e-01f,+2.11673770e-02f,+5.26848361e-02f,
    -1.77859236e-02f,-3.60352769e-02f,+1.31702498e-02f,+5.20187579e-02f,-2.18929630e-02f,
    +4.64458242e-02f,-9.00705010e-02f,+6.54513463e-02f,-5.79836499e-03f,+6.36955351e-02f,
    -7.52149969e-02f,+1.72889289e-02f,+4.31563146e-02f,+2.02918258e-02f,-1.67979077e-01f,
    +1.06983975e-01f,-8.70970562e-02f,-6.30957400e-03f,-5.10768443e-02f,+2.09741332e-02f,
    +8.49261731e-02f,+2.65622765e-01f,-3.33629064e-02f,-1.22459985e-01f,+4.29592729e-02f,
    -1.07956901e-01f,+7.41066635e-02f,-2.84755230e-01f,-7.85608143e-02f,+1.28848851e-02f,
    -2.44557858e-03f,+3.57828476e-02f,+7.69487768e-02f,-6.83365092e-02f,-2.10569292e-01f,
    -8.85688234e-03f,-5.87803964e-03f,+2.84809992e-02f,+5.99022061e-02f,-2.70196259e-01f,
    -1.31623745e-01f,-3.64992931e-03f,+8.58853161e-02f,+3.28894965e-02f,-2.21163705e-01f,
    -3.73114794e-02f,+1.18123135e-02f,-9.81394127e-02f,+7.01058507e-02f,-7.78062940e-02f,
    -2.84316801e-02f,+3.13094817e-02f,+2.69334335e-02f,-1.09049696e-02f,-1.09196134e-01f,
    +2.58758422e-02f,-5.88437193e-04f,-7.08299577e-02f,+1.35320202e-02f,+4.98635694e-02f,
    -7.25309849e-02f,+1.15398608e-01f,-5.16775846e-02f,+4.97481264e-02f,-3.14667709e-02f,
    -5.17914146e-02f,-7.58240744e-02f,-7.54787326e-02f,-3.78477722e-02f,-8.24057758e-02f,
    +1.58561438e-01f,+2.33322635e-01f,+6.21628352e-02f,-5.25016069e-01f,-2.62437612e-01f,
    +1.11710280e-01f,+3.11641008e-01f,+5.80661222e-02f,-1.63974643e-01f,-1.18521772e-01f,
    -1.32287638e-02f,-6.37114644e-02f,-1.13799088e-02f,+6.80365860e-02f,-2.53751397e-01f,
    +3.51153910e-02f,-1.33610711e-01f,+7.86732212e-02f,-5.39752829e-04f,-2.66651846e-02f,
    +2.61240881e-02f,+8.77900328e-03f,-4.71933819e-02f,+3.43816467e-02f,+4.88998555e-02f,
    -9.75468196e-03f,+9.01863798e-02f,-9.04943123e-02f,-2.95856362e-03f,-4.63165194e-02f,
    -2.94069498e-04f,-9.05196071e-02f,+7.15109706e-02f,+2.00306065e-02f,-5.49335964e-02f,
    -6.70854077e-02f,+3.95992771e-02f,+1.16424911e-01f,+3.25270146e-02f,-1.94515381e-02f,
    +4.98754941e-02f,+3.95419933e-02f,+5.58638386e-02f,-1.20739676e-01f,+1.32403359e-01f,
    +8.12627524e-02f,-5.46324663e-02f,-2.01379895e-01f,+6.39426485e-02f,-1.37880489e-01f,
    -3.60553563e-02f,+1.93880260e-01f,-1.57594100e-01f,-2.53706157e-01f,+2.03435868e-01f,
    +5.62815256e-02f,+8.06274116e-02f,-1.12273917e-01f,-1.74838696e-02f,-2.63370484e-01f,
    +1.52494013e-03f,-7.63540640e-02f,+5.99530200e-03f,+6.41879514e-02f,+4.73071188e-02f,
    -3.75349708e-02f,-6.31835163e-02f,-1.44591357e-03f,+2.33731531e-02f,+3.37746963e-02f,
    +7.95225874e-02f,-1.30067527e-01f,+5.08281589e-02f,-2.22311206e-02f,-7.96744600e-02f,
    -1.03563763e-01f,-2.71577686e-02f,+1.19156234e-01f,+3.57577391e-03f,-5.66103384e-02f,
    +1.99398119e-02f,-9.79228318e-03f,-7.48388693e-02f,+3.02955415e-02f,-7.45669231e-02f,
    -3.99662182e-02f,-8.38071331e-02f,+8.59304448e-04f,+2.43663304e-02f,+2.36816239e-02f,
    +8.15501213e-02f,+2.47433726e-02f,-2.80886088e-02f,-3.33992541e-02f,+7.00136041e-03f,
    -2.66342275e-02f,-7.27307647e-02f,+1.70349944e-02f,+2.06041485e-02f,+2.60864589e-02f,
    -4.20146361e-02f,-5.27148647e-03f,-3.86412144e-02f,-1.05576940e-01f,-9.92240980e-02f,
    +2.59052128e-01f,+4.40106988e-02f,-2.23437592e-01f,+1.73474364e-02f,+1.02821812e-01f,
    -3.70805562e-02f,+2.27431506e-02f,-4.47301157e-02f,+3.23831812e-02f,-1.23185381e-01f,
    +9.80286673e-02f,+3.56415100e-02f,+3.18353139e-02f,-2.21041907e-02f,-9.74850506e-02f,
    -2.94641405e-02f,+1.36916235e-01f,+1.72960106e-02f,+1.12430044e-01f,+1.31522909e-01f,
    -1.91056982e-01f,+4.55372520e-02f,+1.71179790e-02f,-7.94458091e-02f,-9.34149325e-02f,
    +9.43919551e-03f,-4.16186405e-03f,-5.55574987e-03f,+4.24761772e-02f,-3.86281349e-02f,
    -1.36805819e-02f,-1.03228226e-01f,-7.99870957e-03f,+1.65298604e-03f,+4.52029891e-02f,
    +1.81186069e-02f,-1.85204409e-02f,+8.44941882e-04f,+6.04282413e-03f,-1.07172271e-02f,
    -4.29114886e-02f,-4.96626087e-02f,+9.19951871e-03f,+1.13127185e-02f,+1.93202868e-02f,
    -8.24414939e-02f,-2.06870586e-01f,+5.75636141e-03f,-1.20499572e-02f,-2.14499399e-01f,
    -5.14761196e-04f,-6.76953569e-02f,-1.75464656e-02f,+1.73104014e-02f,+3.90942656e-02f,
    -9.50635672e-02f,-6.23728037e-02f,-7.43564740e-02f,-6.57482967e-02f,-1.71861842e-01f,
    +9.37804431e-02f,-8.03969800e-03f,+5.64368740e-02f,-7.48439953e-02f,+1.63569376e-02f,
    -1.38875693e-01f,-2.30048165e-01f,+4.05398291e-03f,+4.37316485e-02f,-7.17534646e-02f,
    +8.21002275e-02f,-2.35920802e-01f,+1.05048558e-02f,-9.22695771e-02f,+6.25494868e-02f,
    -6.51253611e-02f,-1.97286800e-01f,+2.38689072e-02f,-3.82692888e-02f,-3.18313390e-01f,
    +3.84837016e-02f,-2.68477760e-02f,+7.61312479e-03f,-1.92648377e-02f,+9.22386535e-03f,
    -1.26392156e-01f,+2.93605655e-01f,-3.62028927e-01f,-2.06983045e-01f,+2.64765233e-01f,
    +1.88808650e-01f,+5.74882217e-02f,-1.44437119e-01f,-4.20600735e-02f,-2.11260408e-01f,
    -6.22701533e-02f,+2.14211401e-02f,+1.54036745e-01f,+1.08890675e-01f,-8.21259245e-02f,
    -7.11089373e-02f,-6.53491765e-02f,-4.16819490e-02f,-1.26485690e-01f,-9.63167921e-02f,
    +1.08623192e-01f,+2.42263265e-03f,-4.40811813e-02f,+1.39816348e-02f,-2.04027802e-01f,
    +1.04718693e-02f,+1.74531743e-01f,-2.44827587e-02f,+4.67438623e-02f,-1.85164753e-02f,
    +4.77543995e-02f,-8.18803012e-02f,+1.04424186e-01f,+5.39880320e-02f,-1.26766846e-01f,
    -1.55892864e-01f,+3.77402119e-02f,+1.05442174e-01f,+1.07862100e-01f,-6.09544367e-02f,
    +4.20048134e-03f,+5.20717353e-02f,+4.61741909e-02f,+9.75162685e-02f,+1.20609544e-01f,
    -9.05227438e-02f,-1.37290791e-01f,+2.49959482e-03f,-3.37391309e-02f,-3.13212983e-02f,
    -1.39954388e-01f,+1.29451066e-01f,+3.39684151e-02f,+1.59135178e-01f,+8.22307616e-02f,
    -8.24912712e-02f,+4.39411364e-02f,-1.26295611e-02f,-1.84675213e-02f,-2.64415830e-01f,
    +7.90869934e-04f,+5.68298064e-02f,-6.45447448e-02f,-6.02610707e-02f,-1.91198513e-02f,
    -2.54765321e-02f,-5.88834751e-03f,-3.00769806e-02f,-5.90609945e-02f,-1.44259781e-02f,
    -2.56055165e-02f,+4.73129153e-02f,+5.25615253e-02f,-1.08460613e-01f,+4.40216213e-02f,
    +4.60338555e-02f,+3.31513882e-02f,-9.35624912e-02f,-9.05051176e-03f,+1.73701402e-02f,
    -2.97405366e-02f,+1.17411964e-01f,-7.19012842e-02f,-1.96000069e-01f,+1.61125332e-01f,
    +7.96530768e-02f,+8.87739286e-02f,-1.03726976e-01f,-7.12554296e-03f,-3.09965670e-01f,
    -3.94671708e-02f,+2.37873364e-02f,-4.67354320e-02f,-1.93762079e-01f,+3.14993337e-02f,
    +1.35388449e-01f,+1.19741289e-02f,-1.04444310e-01f,-4.18897197e-02f,-2.86359582e-02f,
    -3.11045512e-03f,-1.52075421e-02f,+9.21696275e-02f,-9.76733342e-02f,-3.90863419e-02f,
    +1.52191082e-02f,-1.38944983e-02f,-2.61312902e-01f,+9.19622779e-02f,-1.74744818e-02f,
    +1.37621267e-02f,+1.07997358e-01f,+8.00280422e-02f,-7.72896316e-03f,+2.17267573e-01f,
    -4.46938798e-02f,-1.48449361e-01f,-2.66280174e-01f,-1.41636848e-01f,-1.12288721e-01f,
    -3.26984376e-03f,+4.05197516e-02f,+1.25921264e-01f,+6.61489693e-03f,+4.24132235e-02f,
    -2.00663339e-02f,-1.08303972e-01f,-2.57620931e-01f,-3.52593735e-02f,-2.99639255e-01f,
    -1.80558376e-02f,-2.99161971e-02f,-9.60856006e-02f,+5.43589853e-02f,-1.32579863e-01f,
    -4.14127111e-03f,-9.13357660e-02f,-1.38734225e-02f,-7.55612925e-02f,+1.08188644e-01f,
    +8.00744370e-02f,-7.92349055e-02f,+1.21799231e-01f,-4.34692316e-02f,-2.15070602e-02f,
    -3.98170464e-02f,-8.83396938e-02f,-7.75906518e-02f,-1.45643456e-02f,+6.00729436e-02f,
    +1.32152950e-02f,-2.19077393e-01f,+3.02014966e-02f,+1.23402756e-02f,-2.52330720e-01f,
    +4.07882268e-03f,-5.21263145e-02f,+2.86511593e-02f,+4.41953093e-02f,+1.29072919e-01f,
    -5.14908805e-02f,+1.42017648e-01f,-8.36507306e-02f,+1.59927215e-02f,+2.26823002e-01f,
    -1.17038652e-01f,-1.29750986e-02f,-1.34723410e-01f,+3.07894573e-02f,-1.70773029e-01f,
    +1.61452312e-02f,+1.30993649e-01f,+2.17946135e-02f,-6.24319613e-02f,-9.52799991e-02f,
    +9.11781788e-02f,+3.62932868e-02f,-2.55514890e-01f,-1.04554985e-02f,-3.89580280e-02f,
    +2.43582390e-02f,+1.65852178e-02f,+5.52981719e-03f,+8.17595199e-02f,-1.93079472e-01f,
    +8.47434103e-02f,-9.66472030e-02f,+6.42655864e-02f,-4.65243272e-02f,-2.03919075e-02f,
    +7.58592486e-02f,+1.43128708e-01f,-1.41661361e-01f,-1.28838673e-01f,-2.09876820e-01f,
    +9.81277600e-02f,+4.76120003e-02f,+4.89171743e-02f,-2.02060908e-01f,-1.35186851e-01f,
    -1.68465506e-02f,+3.22086923e-02f,+4.01745290e-02f,-8.82661790e-02f,-6.65253624e-02f,
    -1.53609915e-02f,+1.92409158e-01f,-1.53585672e-01f,-7.61499070e-03f,+3.16834971e-02f,
    -4.48829383e-02f,-2.40340084e-01f,+1.92964934e-02f,+6.60246192e-03f,-2.52053440e-01f,
    -3.75897586e-02f,+1.08227404e-02f,+6.97538480e-02f,-3.65195260e-03f,+4.16907296e-02f,
    -1.34803519e-01f,-2.73493767e-01f,+1.71625853e-01f,+5.41825108e-02f,-7.92980120e-02f,
    -1.04404405e-01f,+6.61641583e-02f,-1.33102372e-01f,-2.09911335e-02f,+4.48423773e-02f,
    +1.16012990e-02f,+4.63462099e-02f,-8.11671317e-02f,-7.02944258e-03f,+8.58901367e-02f,
    +3.49187963e-02f,-2.31481902e-02f,-3.43663171e-02f,-1.28574315e-02f,+5.33060543e-02f,
    +8.11636895e-02f,-1.10950261e-01f,+1.15680620e-01f,-2.11720858e-02f,-1.25226170e-01f,
    -1.53593540e-01f,-5.80469631e-02f,-4.73131463e-02f,+1.20176576e-01f,-2.77420115e-02f,
    -8.58074240e-03f,-1.77696243e-01f,+4.19895872e-02f,+6.01728149e-02f,-3.38887453e-01f,
    +2.62500718e-02f,+5.17439619e-02f,+5.54363206e-02f,+4.31776084e-02f,+4.82563414e-02f,
    -9.07485709e-02f,+9.44936574e-02f,-1.28059909e-01f,+8.27339813e-02f,+1.71287611e-01f,
    -3.35711651e-02f,+3.00335344e-02f,+1.65234685e-01f,+3.42371352e-02f,-3.46535981e-01f,
    +9.37554985e-02f,+1.13201998e-01f,+5.16692363e-02f,-3.84374075e-02f,+4.96962629e-02f,
    -1.94867834e-01f,-7.28018656e-02f,-8.97170827e-02f,-8.14088061e-03f,-3.37224342e-02f,
    +9.21119377e-03f,-6.27061948e-02f,+1.59082651e-01f,-2.21612286e-02f,+5.20775430e-02f,
    +1.39697837e-02f,-5.16377017e-02f,-1.21809348e-01f,-6.02414571e-02f,-6.31815940e-02f,
    -6.57799793e-03f,+9.57009010e-03f,+1.45572354e-03f,+9.56214871e-03f,-5.04859313e-02f,
    -1.58332407e-01f,-9.21736211e-02f,-5.03462479e-02f,-2.52413116e-02f,+3.95420706e-03f,
    -5.25616035e-02f,-1.99070200e-01f,+4.02125269e-02f,+2.47205004e-01f,-9.88915190e-03f,
    +4.01220210e-02f,-8.18545744e-02f,+5.61393984e-03f,-1.04155727e-01f,+3.36131416e-02f,
    -1.73367299e-02f,+1.23231532e-02f,+3.50660570e-02f,-5.56437112e-02f,-1.28545344e-01f,
    -1.66686401e-02f,-1.23661898e-01f,+6.18248209e-02f,+6.32912805e-03f,+1.35263324e-01f,
    -4.46010800e-03f,-1.39626209e-02f,+4.85226698e-03f,+4.53039166e-03f,+1.34822642e-02f,
    +1.38234831e-02f,-4.28592041e-02f,+7.54664019e-02f,+6.11883076e-03f,+4.50979024e-02f,
    -3.84420343e-03f,-5.28851822e-02f,-1.39516396e-02f,+1.68737881e-02f,-5.70662357e-02f,
    +4.70033996e-02f,-4.42293286e-02f,+2.38466710e-02f,-1.90865062e-02f,+5.51089086e-02f,
    -3.02424422e-03f,+1.53254107e-01f,-2.10213661e-01f,-5.68452068e-02f,+8.29396248e-02f,
    +1.72771723e-03f,+3.04937717e-02f,+1.05469063e-01f,-1.19036920e-02f,-4.09496725e-02f,
    +1.44638523e-01f,-4.18703109e-02f,+1.09123714e-01f,+4.72725257e-02f,+4.87851948e-02f,
    -1.91965446e-01f,-1.48675323e-01f,-9.85314623e-02f,+5.02262786e-02f,+6.73162267e-02f,
    -3.51143703e-02f,+1.59484260e-02f,+1.67796556e-02f,+1.27413556e-01f,-1.74945697e-01f,
    +5.38258180e-02f,-1.91723749e-01f,+9.84405428e-02f,-2.56955568e-02f,-1.01109724e-02f,
    +1.72673538e-02f,+1.19869128e-01f,-1.20729402e-01f,-1.56330839e-01f,+6.49516881e-02f,
    -6.16862625e-03f,+1.49884019e-02f,+3.05246059e-02f,-1.18223736e-02f,-1.83888953e-02f,
    -2.58454289e-02f,-5.84689304e-02f,+1.47019895e-02f,-4.79096314e-03f,-7.05861822e-02f,
    -1.32074337e-02f,-4.88969758e-02f,+3.37743945e-02f,-4.06121090e-03f,+4.56016250e-02f,
    +3.82980146e-02f,-2.13946067e-02f,+1.02851987e-02f,+5.83860464e-03f,-1.10842772e-01f,
    +1.08245816e-02f,-8.63755643e-02f,+1.13913445e-02f,-2.89504905e-03f,+6.39967695e-02f,
    +4.85514253e-02f,+3.97572190e-01f,-2.40428150e-01f,-3.15551609e-01f,+2.49023169e-01f,
    +9.03235227e-02f,+1.70174614e-01f,-2.41459027e-01f,-1.71718702e-01f,-3.65330935e-01f,
    -6.31134808e-02f,-2.30572410e-02f,-1.19167529e-01f,-2.46053740e-01f,-1.01178460e-01f,
    +1.19754106e-01f,-2.46486031e-02f,+5.04184142e-02f,-2.50557959e-02f,-2.01383293e-01f,
    -5.20464331e-02f,-1.31030485e-01f,-1.31793395e-02f,+1.02399826e-01f,-3.74255404e-02f,
    +1.34022340e-01f,-3.39871794e-02f,-1.08266622e-01f,-7.50027597e-02f,-1.90641835e-01f,
    -7.11786700e-03f,+3.06348372e-02f,+2.94913910e-02f,-1.65603608e-01f,-9.07325894e-02f,
    +3.07683833e-02f,+7.13448822e-02f,-3.01661808e-02f,-1.67195313e-02f,+8.03064778e-02f,
    -5.53515963e-02f,+7.29992166e-02f,+1.89418271e-02f,+1.37364343e-01f,-8.22946802e-02f,
    -9.08418149e-02f,-3.45488191e-02f,-1.78711057e-01f,-1.28490124e-02f,+4.41373363e-02f,
    -5.07715456e-02f,+2.18508989e-01f,-2.02184752e-01f,-2.54847128e-02f,-6.77992776e-02f,
    +5.95365725e-02f,+1.86945125e-01f,-1.00204037e-04f,-8.83282200e-02f,-2.96912283e-01f,
    -2.43641473e-02f,-1.51942715e-01f,+1.34112090e-02f,+3.09119951e-02f,-3.56659055e-01f,
    +6.23910986e-02f,-5.62204607e-02f,+5.27564324e-02f,+5.90598583e-02f,+6.08091541e-02f,
    +2.11595763e-02f,-7.73294072e-04f,-2.16034278e-02f,+5.73315099e-02f,+6.21265359e-02f,
    +6.33779764e-02f,+5.78618310e-02f,-1.24533646e-01f,+8.15893803e-03f,-9.40715149e-02f,
    +2.63545588e-02f,-1.83372378e-01f,+1.16141722e-01f,+1.21119283e-02f,-5.32498956e-02f,
    -2.65316069e-01f,+1.10123992e-01f,-1.29521191e-01f,+9.58081260e-02f,-4.40465398e-02f,
    -1.93893127e-02f,+8.39920565e-02f,-2.13492319e-01f,-2.06111267e-01f,+1.02077618e-01f,
    +2.03023739e-02f,-5.06591499e-02f,-6.84678135e-03f,+1.42717049e-01f,-2.81834215e-01f,
    -1.53236851e-01f,+1.09407052e-01f,-2.82428950e-01f,-1.64160743e-01f,+1.51519179e-01f,
    +7.57516623e-02f,+6.79680333e-02f,-4.84165996e-02f,+3.59268896e-02f,-2.93459207e-01f,
    +7.69862765e-03f,-4.49965261e-02f,+6.96254149e-02f,+5.09158894e-02f,+5.73954061e-02f,
    -1.39286285e-02f,+6.75298227e-03f,-5.26324958e-02f,+5.15354611e-02f,+3.61225940e-02f,
    +5.59346229e-02f,-9.10622552e-02f,+3.69636230e-02f,+7.87809025e-03f,-5.87059967e-02f,
    -1.39243796e-01f,+8.53596032e-02f,-7.50156865e-02f,+4.99577187e-02f,-2.11599953e-02f,
    +6.01574592e-02f,-1.86126664e-01f,-1.41660243e-01f,-7.39312470e-02f,+1.77010998e-01f,
    +3.36890221e-02f,-4.61203745e-03f,-7.39334822e-02f,+7.06363618e-02f,-2.30084330e-01f,
    +2.10691970e-02f,-1.25039648e-02f,-4.61295545e-02f,+3.29730362e-02f,+1.69065390e-02f,
    -6.25248253e-02f,-7.43764043e-02f,-6.28228765e-04f,+4.60343286e-02f,+1.30970674e-02f,
    -5.16293235e-02f,+5.18961847e-02f,-1.60886019e-01f,-4.19505797e-02f,+4.12333794e-02f,
    +6.53595999e-02f,+6.47634864e-02f,-9.61238593e-02f,-2.47818660e-02f,-1.26576468e-01f,
    -6.34342134e-02f,-8.97427872e-02f,-9.11889821e-02f,-2.21420169e-01f,+1.31909490e-01f,
    +7.82958791e-02f,+1.12199433e-01f,-1.16702542e-01f,+6.93988800e-02f,-1.16446547e-01f,
    -1.13263786e-01f,+1.12052569e-02f,+2.20057014e-02f,+5.75349033e-02f,-2.30773520e-02f,
    -9.15171579e-02f,-5.02994172e-02f,+4.09435332e-02f,-1.61666851e-02f,-3.52519914e-04f,
    +6.78398833e-02f,-3.93039435e-02f,-5.55463433e-02f,+3.63175236e-02f,-8.99519101e-02f,
    -6.20361194e-02f,-4.53696996e-02f,-1.67313940e-03f,+1.25692720e-02f,-1.82820167e-02f,
    +2.68622339e-02f,-4.24338207e-02f,-3.58076803e-02f,+3.36362012e-02f,-2.47392170e-02f,
    -5.62175065e-02f,-1.11795969e-01f,-5.85276540e-03f,+4.13029781e-03f,+1.50464391e-02f,
    +6.56451061e-02f,-8.63399282e-02f,-2.29822956e-02f,-6.12169169e-02f,-6.82581440e-02f,
    +5.11289313e-02f,-4.16809414e-03f,+3.47577967e-02f,-2.37005912e-02f,-1.55961118e-03f,
    -8.63678455e-02f,-6.51167184e-02f,-5.92857301e-02f,-1.98389143e-01f,+3.88255008e-02f,
    +1.27758011e-01f,+1.36193484e-01f,-2.18832552e-01f,+9.02347118e-02f,-7.99400806e-02f,
    +7.45123252e-03f,-5.17751276e-02f,-1.66536853e-01f,+2.08830498e-02f,-2.27507912e-02f,
    +8.05692822e-02f,-7.06306249e-02f,+5.16717061e-02f,+5.70827536e-02f,+3.87458131e-02f,
    +2.26267427e-02f,-7.98274875e-02f,-9.44872871e-02f,-1.33102968e-01f,+1.75232962e-01f,
    +1.12445623e-01f,+5.52063957e-02f,-1.62492320e-02f,-1.47735588e-02f,-1.46368697e-01f,
    -1.37904301e-01f,+3.47209722e-02f,-1.78583026e-01f,+9.04201865e-02f,+1.36925966e-01f,
    +1.83335811e-01f,+4.50304523e-02f,+9.43784416e-02f,-6.16861694e-02f,-3.53410572e-01f,
    +1.20562211e-01f,-4.35643606e-02f,-2.71773823e-02f,-8.46058130e-02f,-4.74525131e-02f,
    -6.72466755e-02f,+3.54060344e-02f,-9.19951051e-02f,+8.24196488e-02f,-5.85326813e-02f,
    +3.95290665e-02f,-7.85620362e-02f,-3.79484855e-02f,-1.32525250e-01f,-6.90999180e-02f,
    +7.15614408e-02f,+1.97581291e-01f,-5.42528927e-02f,-1.18214078e-01f,-9.52194855e-02f,
    +5.43234050e-02f,-1.37790486e-01f,+9.96977165e-02f,+1.43978968e-01f,-4.03418764e-02f,
    -3.63199949e-01f,+8.64141360e-02f,-1.08266406e-01f,-6.19906448e-02f,+2.22129319e-02f,
    +8.50624312e-03f,+1.33342044e-02f,+2.71615759e-02f,+1.60675853e-01f,+7.87115470e-02f,
    -5.12106568e-02f,-3.84879485e-02f,-2.52520114e-01f,-6.59092814e-02f,-1.18476786e-01f,
    -2.10280523e-01f,+1.35413902e-02f,+5.71100181e-03f,+1.14987195e-01f,-5.12351282e-02f,
    +3.17088924e-02f,-4.23066691e-02f,-2.53797378e-02f,-6.14738613e-02f,-9.37659591e-02f,
    -5.38496971e-02f,+1.07256033e-01f,-1.50585130e-01f,-2.44829264e-02f,+8.82873684e-02f,
    +4.64862064e-02f,+5.17696887e-02f,-2.45254021e-02f,-5.55794016e-02f,-1.29552066e-01f,
    -1.70577526e-01f,+1.89034015e-01f,-2.58620411e-01f,-1.97035953e-01f,+2.30704665e-01f,
    +1.17865041e-01f,-3.04306149e-02f,+7.82298148e-02f,-8.01531523e-02f,-1.12707049e-01f,
    -3.86258662e-02f,+1.76798642e-01f,-2.64431626e-01f,-1.52711257e-01f,+8.47493932e-02f,
    -3.95998210e-02f,+5.43005951e-02f,-8.27223249e-03f,+1.37577742e-01f,-2.18771696e-01f,
    +7.64026400e-03f,+8.52687359e-02f,-3.91069591e-01f,-2.58422971e-01f,+1.02889679e-01f,
    +1.48921698e-01f,+6.98622987e-02f,-4.15262729e-02f,-1.78270079e-02f,-3.09433520e-01f,
    -5.49856387e-03f,+8.05640295e-02f,-1.09530635e-01f,-6.04680367e-02f,-5.59039786e-02f,
    +4.52437587e-02f,+1.22649558e-01f,-1.23135902e-01f,+4.03725368e-04f,-2.20512271e-01f,
    -1.46590928e-02f,+6.62218481e-02f,-1.37201726e-01f,+3.60592678e-02f,+2.45681815e-02f,
    -8.05265009e-02f,+7.11881965e-02f,-6.36643693e-02f,+1.77717909e-01f,-1.21851929e-01f,
    +1.05428301e-01f,-8.71766708e-04f,+2.27116402e-02f,+1.93073452e-02f,-7.29972636e-03f,
    -2.04277724e-01f,+4.02528048e-03f,+3.28884497e-02f,+1.33779183e-01f,-1.68634400e-01f,
    -5.87483644e-02f,+6.43123016e-02f,-1.67855009e-01f,-1.32692724e-01f,-5.78389354e-02f,
    +1.38074026e-01f,+6.75812066e-02f,+1.38446629e-01f,-5.32178059e-02f,-7.47318044e-02f,
    +7.06778988e-02f,+2.26148292e-02f,-6.27533859e-03f,+6.04460482e-03f,+4.50436659e-02f,
    +6.96683628e-03f,+1.95541475e-02f,-9.73983854e-02f,+3.02096400e-02f,+9.54550970e-03f,
    +1.26291409e-01f,-1.48237213e-01f,+1.69780815e-03f,+4.23969366e-02f,-1.91564798e-01f,
    +2.77553294e-02f,+3.04932566e-03f,-3.63750309e-02f,-1.03319790e-02f,-2.86757927e-02f,
    -1.08492456e-01f,+6.46900907e-02f,+2.02673730e-02f,+1.03973255e-01f,+3.70000303e-02f,
    -5.15156519e-03f,-4.24619913e-02f,+6.90862490e-03f,-1.01320907e-01f,-3.46565545e-02f,
    -5.14075793e-02f,+2.35260632e-02f,-2.56765902e-01f,-6.69430941e-02f,-3.46120261e-02f,
    +1.44790888e-01f,+9.85087231e-02f,-3.19138736e-01f,+1.84282232e-02f,-8.73954445e-02f,
    -7.09959678e-03f,-4.07903157e-02f,-1.08900648e-02f,+5.92535101e-02f,-9.32996199e-02f,
    -5.86417355e-02f,+7.36834928e-02f,+3.42643037e-02f,+6.50183409e-02f,-5.94083332e-02f,
    -8.49783644e-02f,+1.04917824e-01f,-1.07691422e-01f,-2.69123822e-01f,-1.08225264e-01f,
    +1.10507302e-01f,+9.64439958e-02f,+3.08176409e-02f,-1.52571112e-01f,-2.08057642e-01f,
    +3.21469158e-02f,-4.20925394e-02f,-8.31183866e-02f,-4.82475571e-03f,+1.27997413e-01f,
    +5.41638359e-02f,+6.25183210e-02f,-1.38650820e-01f,+7.33427405e-02f,-9.60510969e-02f,
    +1.01629138e-01f,-3.30205739e-01f,+1.34699374e-01f,+2.83787157e-02f,-1.50920212e-01f,
    -1.87040716e-01f,+5.81263490e-02f,-7.72117674e-02f,+3.08951028e-02f,+1.39029086e-01f,
    -3.65954749e-02f,-1.62537411e-01f,-1.51838630e-01f,-5.64777069e-02f,+7.09184930e-02f,
    +2.05275789e-01f,+1.02181554e-01f,-1.09959140e-01f,-7.02042729e-02f,-2.04546154e-01f,
    -6.07413892e-03f,+1.25003830e-01f,-2.32200757e-01f,-1.87650755e-01f,+8.03176612e-02f,
    +3.07712048e-01f,-7.79906288e-02f,+3.94176804e-02f,+6.29890487e-02f,-2.26353481e-01f,
    +1.39308572e-01f,-3.03175002e-01f,+3.73236090e-02f,+6.40045553e-02f,-1.22553505e-01f,
    -3.22804362e-01f,+1.83691103e-02f,+6.86456785e-02f,+5.78710809e-02f,+6.23406097e-02f,
    -1.30531862e-02f,-1.00711890e-01f,+9.08526871e-03f,+7.80221969e-02f,-2.24415064e-01f,
    +7.61189312e-02f,+9.54200402e-02f,-1.76789284e-01f,+2.01880559e-02f,-3.64269204e-02f,
    -1.10941298e-01f,+1.24593399e-01f,-8.33850726e-02f,+6.53689951e-02f,+5.50400615e-02f,
    +4.15764935e-02f,+8.48014653e-02f,+4.66456935e-02f,+6.90091923e-02f,-7.04457983e-02f,
    +6.02414496e-02f,-7.75113702e-03f,-5.93811087e-02f,+1.08634323e-01f,+3.64645720e-02f,
    -1.67214736e-01f,-6.11423291e-02f,-1.24988958e-01f,+2.95395311e-02f,+3.17383893e-02f,
    +6.78578438e-03f,+1.39850870e-01f,-1.46422774e-01f,-4.60150167e-02f,+1.47138655e-01f,
    +5.39299548e-02f,-1.66786760e-02f,-8.25859979e-02f,+1.41523436e-01f,-1.40708312e-01f,
    +6.53393716e-02f,-2.90919617e-02f,+8.42105374e-02f,-3.17955203e-02f,-6.02003234e-03f,
    -1.11467965e-01f,-2.10377686e-02f,-6.19570464e-02f,-6.85405079e-03f,-7.08343014e-02f,
    -7.91525692e-02f,-2.38033719e-02f,-2.59293377e-01f,+2.14310661e-02f,+2.08036713e-02f,
    +3.15763019e-02f,-3.65961604e-02f,+5.63808531e-02f,+6.65161535e-02f,+9.54330638e-02f,
    +6.90698102e-02f,+1.63505450e-02f,-4.29982096e-02f,-4.16868627e-02f,+1.58464938e-01f,
    -5.54909324e-03f,-6.18154630e-02f,+7.55102709e-02f,-2.44843364e-02f,-8.49152505e-02f,
    -1.70610542e-03f,+1.61208510e-02f,-3.24708149e-02f,+2.07211450e-02f,+7.17850775e-02f,
    +2.53562853e-02f,-1.35655433e-01f,+4.78884205e-02f,+4.96898443e-02f,+2.68880688e-02f,
    -3.66510041e-02f,-1.79262012e-02f,-1.06704652e-01f,-3.17036198e-03f,+4.62276600e-02f,
    +7.23601654e-02f,-6.49769902e-02f,+2.23705694e-02f,-4.89408746e-02f,+7.77005043e-04f,
    -6.44115582e-02f,+1.42021880e-01f,-2.53018141e-01f,-9.97070596e-02f,+1.13130316e-01f,
    +7.71057010e-02f,-1.08123720e-02f,+1.07196152e-01f,+1.66004989e-02f,-9.72083881e-02f,
    +1.64200455e-01f,-9.55024064e-02f,-1.00186154e-01f,+1.41592309e-01f,-8.11127871e-02f,
    -2.86217600e-01f,-6.22049868e-02f,-3.73596027e-02f,+3.65367308e-02f,+2.91670468e-02f,
    -7.66610801e-02f,+4.56185266e-02f,+1.22866929e-01f,+8.01848173e-02f,+8.13404098e-03f,
    -1.62649110e-01f,+1.55233771e-01f,+2.61888513e-03f,-8.06553736e-02f,+9.58262533e-02f,
    -3.38058956e-02f,+1.43049359e-01f,-2.47517288e-01f,-1.47800609e-01f,+1.24903254e-01f,
    +5.09184897e-02f,+7.22543523e-03f,-3.77933942e-02f,-1.85104553e-02f,+1.44439088e-02f,
    +1.91502944e-02f,+3.27244075e-03f,-6.96830973e-02f,-4.10496593e-02f,+2.79569440e-02f,
    +2.31179819e-02f,-5.95983081e-02f,-7.12216552e-03f,-2.69378489e-03f,-3.94002534e-02f,
    +1.36148557e-02f,-4.40464588e-04f,-1.40219256e-01f,-1.37500629e-01f,-6.92545399e-02f,
    +1.32783562e-01f,+6.89945966e-02f,-1.12883434e-01f,+2.06925496e-02f,-4.45366018e-02f,
    -2.48162478e-01f,+4.38991785e-02f,-2.33753964e-01f,-2.48948425e-01f,+1.47847652e-01f,
    +2.81212002e-01f,+1.16345361e-01f,-4.34780046e-02f,-9.46622118e-02f,-3.38966429e-01f,
    -3.51406028e-03f,-1.06384657e-01f,-2.87038207e-01f,-2.17500776e-01f,-1.04623713e-01f,
    +7.54565001e-02f,+1.70294195e-01f,-1.06622949e-01f,+7.80497491e-02f,+3.28513421e-02f,
    +7.10725337e-02f,+3.41650099e-02f,-6.31106868e-02f,-6.46064654e-02f,-7.73706511e-02f,
    +2.59884614e-02f,+4.09616642e-02f,-3.72849479e-02f,+1.03631400e-01f,-8.42539668e-02f,
    -8.00947566e-03f,+2.95630991e-02f,-1.88763484e-01f,-1.73395321e-01f,+1.85866997e-01f,
    +2.11963102e-01f,+7.50276912e-03f,-7.16416910e-02f,-7.83548057e-02f,-2.03083456e-01f,
    +1.79760344e-02f,-5.66472579e-03f,-1.82490081e-01f,+5.01014926e-02f,-1.30657470e-02f,
    -1.65867265e-02f,-6.19045272e-02f,+2.63598189e-02f,+2.91511584e-02f,-1.02696598e-01f,
    -1.15261182e-01f,+7.37269521e-02f,-1.24314409e-02f,-5.83200529e-02f,-1.08419925e-01f,
    +4.34524529e-02f,+1.37796015e-01f,-1.86675321e-02f,-7.69877993e-03f,-2.68316381e-02f,
    +3.50068063e-02f,-1.58370107e-01f,-1.15388650e-02f,+3.33402748e-03f,-1.69647902e-01f,
    +3.54362056e-02f,-7.58001208e-03f,+1.67560689e-02f,-2.34026946e-02f,+5.67517951e-02f,
    -3.04921754e-02f,+1.23797469e-01f,+4.20871340e-02f,-3.08279563e-02f,+2.87509263e-01f,
    -8.96293297e-02f,+7.65849277e-02f,-2.19711944e-01f,+6.13524672e-03f,-2.18410388e-01f,
    -3.37673761e-02f,+1.18524179e-01f,-1.70305848e-01f,-4.02112529e-02f,+7.96296671e-02f,
    +5.38792536e-02f,+4.25392613e-02f,+8.60431194e-02f,+1.03747658e-01f,-1.97298732e-02f,
    +5.07644890e-03f,+9.34055746e-02f,-1.39801772e-02f,-1.63077623e-01f,-6.06336705e-02f,
    +3.71182747e-02f,+8.65014419e-02f,-1.04811676e-01f,-1.36127661e-03f,+6.64980188e-02f,
    +1.00307707e-02f,-1.77435845e-01f,-1.22840360e-01f,-9.56893936e-02f,+3.73248756e-02f,
    -1.57893319e-02f,+1.79746479e-01f,+4.21459191e-02f,+7.49512836e-02f,+1.56789813e-02f,
    +1.35340244e-02f,-1.64365262e-01f,-8.69088918e-02f,-7.46535137e-02f,+9.53334421e-02f,
    -8.16434175e-02f,-8.71608183e-02f,+1.03723884e-01f,-6.65928796e-03f,+3.80477495e-02f,
    -1.17856599e-02f,-1.48741260e-01f,-3.83337513e-02f,-7.99270123e-02f,+1.31049886e-01f,
    +2.24959534e-02f,-5.86860366e-02f,-2.51491950e-03f,+1.10118233e-01f,+2.25086752e-02f,
    -1.22818798e-01f,+1.55983614e-02f,-8.66679382e-03f,+1.00275919e-01f,+7.81281851e-03f,
    -1.01848006e-01f,-1.99449927e-01f,+1.71354208e-02f,+3.18540186e-02f,-3.48537811e-03f,
    -7.99354538e-02f,-5.02807042e-03f,+1.64411739e-02f,-6.32381067e-02f,+3.81538942e-02f,
    -2.77744502e-01f,+3.79847549e-03f,+1.72167540e-01f,+4.08758968e-02f,-8.59474987e-02f,
    -1.07788317e-01f,-1.90471280e-02f,+1.98191255e-02f,+1.44205019e-01f,-1.28135994e-01f,
    -6.12012558e-02f,-1.44831702e-01f,+7.00722560e-02f,+6.28524795e-02f,+2.10017059e-03f,
    -1.43494263e-01f,+9.24353115e-03f,+3.43307704e-02f,+6.18841723e-02f,-1.71158463e-01f,
    -1.48313865e-01f,-1.05878577e-01f,+3.57077122e-02f,-3.91278751e-02f,-1.38614714e-01f,
    -1.13930777e-01f,+8.24609026e-02f,-7.71040237e-03f,+6.08169958e-02f,-8.19654986e-02f,
    -2.60383524e-02f,+1.26569867e-01f,-5.63381538e-02f,-9.45319980e-02f,-8.68124887e-02f,
    +2.54986826e-02f,-1.38463052e-02f,+7.15181679e-02f,-1.09153450e-01f,-2.19055149e-03f,
    -1.53182089e-01f,-1.77879795e-01f,+2.51448303e-01f,+1.07930228e-02f,-2.30858013e-01f,
    -3.75940166e-02f,+3.96654122e-02f,-3.69916260e-02f,-4.25784625e-02f,+5.80878146e-02f,
    -2.53945887e-01f,+1.01399829e-03f,+2.15081885e-01f,+5.87784387e-02f,-2.22438425e-01f,
    +2.77271587e-03f,-9.76300314e-02f,-9.66391787e-02f,+1.08331740e-02f,-2.96285599e-02f,
    -2.20908716e-01f,-1.27853692e-01f,+1.50520772e-01f,-1.52805401e-02f,-1.06447279e-01f,
    -6.53354973e-02f,-4.74511646e-02f,+6.71103969e-02f,+4.64896075e-02f,-1.13023430e-01f,
    -8.23424608e-02f,-1.02826543e-01f,+7.88554698e-02f,-5.27361315e-03f,-6.63375184e-02f,
    -1.21759936e-01f,-8.32670256e-02f,+3.56255099e-02f,+4.73044738e-02f,-8.34934637e-02f,
    -1.71509713e-01f,+3.88452709e-02f,+2.81366408e-02f,+2.74267606e-02f,-1.40614644e-01f,
    -4.08581980e-02f,-9.49161723e-02f,+4.12369743e-02f,+5.93465008e-02f,-1.03597216e-01f,
    -1.39953345e-01f,-3.81756909e-02f,+7.07152346e-03f,+3.12337950e-02f,+1.04097389e-01f,
    +2.78951749e-02f,-1.12976544e-01f,+3.35911103e-02f,-7.29658082e-02f,+3.26486118e-02f,
    -5.98199107e-02f,+5.54075129e-02f,-2.48169769e-02f,-1.74015537e-02f,+8.74155015e-02f,
    -4.12383378e-02f,-6.54077064e-03f,-3.00131798e-01f,-2.46998873e-02f,+2.07723662e-01f,
    -6.96899649e-03f,-6.49077594e-02f,+2.95684598e-02f,+1.10303454e-01f,+8.92716274e-02f,
    +1.47635955e-03f,-8.62965435e-02f,-1.96999293e-02f,-1.69370435e-02f,-1.01910800e-01f,
    -3.08732260e-02f,-6.22729063e-02f,+5.26756495e-02f,+9.52926353e-02f,-4.82492559e-02f,
    -4.93169613e-02f,+1.22975536e-01f,-3.67328562e-02f,-1.15401618e-01f,+5.57346679e-02f,
    +1.00361846e-01f,+4.87926602e-03f,+1.18461754e-02f,+7.43250400e-02f,-2.76895855e-02f,
    -5.76147214e-02f,-5.02496697e-02f,-1.42541721e-01f,+4.86461585e-03f,+9.10856389e-03f,
    +1.32286837e-02f,-7.29709044e-02f,+6.15519322e-02f,+2.10854411e-03f,+1.20752506e-01f,
    -6.48731515e-02f,+1.44156039e-01f,-1.14773889e-03f,+1.23395752e-02f,-1.12774231e-01f,
    -1.15611777e-01f,+1.36182785e-01f,-3.49985175e-02f,+5.18257506e-02f,+1.06567450e-01f,
    +3.81401577e-03f,-1.08541446e-02f,-2.91711148e-02f,+8.05212706e-02f,-5.50002530e-02f,
    -1.62621602e-01f,-9.47321132e-02f,+8.77196267e-02f,+3.27502489e-02f,+1.47057511e-03f,
    +3.13894488e-02f,-1.03375249e-01f,+4.25651483e-02f,+4.47643287e-02f,-1.49484724e-01f,
    -9.49299335e-02f,-7.87107367e-03f,-2.69178790e-03f,+8.22458323e-03f,+5.25671318e-02f,
    -2.49814205e-02f,-7.74995610e-02f,-1.03972405e-01f,-2.17499789e-02f,-1.77631769e-02f,
    -1.35703571e-03f,+6.61177188e-02f,+4.68321107e-02f,+1.40999462e-02f,+6.24060743e-02f,
    +2.84954477e-02f,-1.88806087e-01f,+4.05054502e-02f,+5.35335951e-02f,+3.71268541e-02f,
    -2.34750643e-01f,-8.55322033e-02f,+1.41918520e-02f,+1.25976792e-02f,-8.35291520e-02f,
    -2.32165996e-02f,-1.04638129e-01f,+4.14095446e-02f,+2.42386814e-02f,-5.34516424e-02f,
    -6.89861029e-02f,+6.47932217e-02f,-1.96338966e-01f,+6.57394081e-02f,+1.01661064e-01f,
    +3.63186412e-02f,+5.32259531e-02f,-8.93214867e-02f,-1.21459387e-01f,+1.02826841e-01f,
    +1.25657007e-01f,+6.60673380e-02f,-5.96551709e-02f,-3.82920587e-03f,+6.74925596e-02f,
    +1.18569098e-02f,-2.01781262e-02f,-5.98394945e-02f,-1.17422445e-02f,+1.00081600e-02f,
    +6.77131936e-02f,+6.74270615e-02f,+2.11381484e-02f,+7.07967281e-02f,-2.82927370e-03f,
    -1.81001619e-01f,-2.05238815e-02f,+1.12242445e-01f,+9.10685491e-03f,-5.12658767e-02f,
    -3.01658899e-01f,-6.21784851e-03f,+8.85755867e-02f,-6.63356557e-02f,-2.14370996e-01f,
    -5.31932153e-02f,-5.48753552e-02f,-2.00700030e-01f,+1.55219864e-02f,+5.05222892e-03f,
    -7.33339367e-03f,+3.98970991e-02f,-5.03958389e-02f,+5.98667450e-02f,+7.40040690e-02f,
    -9.90969595e-03f,-5.20287044e-02f,-1.15134962e-01f,-5.49252778e-02f,+1.05423480e-01f,
    -1.93399955e-02f,-1.56514898e-01f,+1.92928702e-01f,+1.11938372e-01f,-1.35444347e-02f,
    +1.53306015e-02f,-2.31130764e-01f,-4.59774621e-02f,-1.12710632e-01f,+5.99416858e-03f,
    -1.98081713e-02f,+4.88156229e-02f,+5.75100034e-02f,-6.34420961e-02f,-4.11699526e-02f,
    -1.29380673e-01f,-1.40158176e-01f,+1.24405593e-01f,+1.10638030e-01f,-2.14922458e-01f,
    -2.59553313e-01f,-3.65115586e-03f,+6.59059361e-02f,-1.41508445e-01f,-7.65730888e-02f,
    +1.58314437e-01f,-9.33079645e-02f,+1.26866633e-02f,-6.84335679e-02f,-8.18050206e-02f,
    +2.70855669e-02f,-1.08080223e-01f,+1.18528679e-01f,-1.40066981e-01f,-3.75958569e-02f,
    -5.33553436e-02f,-4.05111238e-02f,+8.85315686e-02f,+1.05024382e-01f,-1.05612017e-02f,
    -1.95565447e-01f,-9.82747376e-02f,-3.56765166e-02f,-2.94359066e-02f,-1.67424291e-01f,
    -4.12866287e-02f,-1.76445376e-02f,+2.18715686e-02f,-1.51097670e-01f,-1.11525811e-01f,
    +4.77478281e-02f,+2.65634991e-02f,+2.23295446e-02f,-3.43104377e-02f,+9.67582688e-02f,
    +4.04528715e-02f,-4.85287346e-02f,-4.92269211e-02f,-1.34005740e-01f,+1.66770071e-01f,
    -9.62180719e-02f,-1.79459915e-01f,+1.85170472e-01f,-1.95519323e-03f,-1.28625721e-01f,
    -2.24055305e-01f,+1.62456501e-02f,+4.07268517e-02f,+6.27738237e-02f,-6.41438365e-02f,
    -9.08826217e-02f,-6.54843152e-02f,+5.66553473e-02f,+1.16807513e-01f,-9.24203619e-02f,
    +1.10784851e-01f,-9.63802636e-02f,+1.80896018e-02f,-1.44091006e-02f,-2.32320148e-02f,
    -1.63550809e-01f,-1.75571702e-02f,-2.66760169e-03f,+2.19474845e-02f,+5.69895655e-02f,
    -9.89479013e-03f,-2.60469131e-02f,-1.76064715e-01f,-1.27468064e-01f,+4.24701571e-02f,
    -1.41545141e-03f,+1.44901678e-01f,+3.04702874e-02f,+7.08415955e-02f,+1.16775811e-01f,
    +4.54581603e-02f,-4.80953492e-02f,+8.80079120e-02f,-4.93410334e-04f,-1.56640902e-01f,
    -1.65101007e-01f,-2.17820153e-01f,+1.66047662e-02f,-7.26997778e-02f,-4.49507050e-02f,
    -1.04546554e-01f,+2.54563317e-02f,-1.42091187e-02f,-4.94512618e-02f,+4.61182818e-02f,
    -8.16032216e-02f,+4.89326566e-02f,-2.20621396e-02f,+6.85014576e-02f,-3.68083455e-02f,
    -2.59451896e-01f,+1.17863759e-01f,-1.55577332e-01f,-1.01837870e-02f,+5.87854013e-02f,
    -2.65611038e-02f,+1.94722012e-01f,+8.46764725e-03f,-1.00488365e-01f,-5.11920303e-02f,
    +1.89942904e-02f,+4.02299426e-02f,-1.56279162e-01f,-9.92770195e-02f,+7.92798400e-02f,
    +1.01085436e-02f,+7.48875514e-02f,-2.42389552e-02f,+4.87459376e-02f,-6.66165650e-02f,
    -1.65409088e-01f,+4.70870361e-02f,-2.22703382e-01f,+1.29090818e-02f,+1.43083632e-01f,
    -1.84169814e-01f,+1.20523445e-01f,+1.76693380e-01f,-1.78209767e-01f,-2.60732204e-01f,
    -3.66183482e-02f,+5.79092046e-03f,-4.55334783e-02f,+5.82630150e-02f,+9.68320221e-02f,
    +5.03014699e-02f,-6.11357689e-02f,+7.52262473e-02f,-1.31342970e-02f,-5.13732247e-02f,
    +3.70512828e-02f,-1.45091526e-02f,+1.33794816e-02f,+7.33127668e-02f,+4.20973860e-02f,
    -2.77458757e-01f,+5.94026893e-02f,-5.87888546e-02f,+1.72256351e-01f,+7.73605034e-02f,
    -3.65484878e-02f,-7.74537027e-02f,+1.18402608e-01f,+1.46493360e-01f,-2.17739977e-02f,
    -3.16726744e-01f,-1.47116959e-01f,+1.87699333e-01f,-1.62805952e-02f,-1.31160527e-01f,
    +8.68564174e-02f,-2.09382027e-02f,+3.28861102e-02f,+2.39409227e-02f,+9.57130268e-02f,
    -1.72844574e-01f,+1.88129861e-02f,+3.15142982e-02f,+8.91873837e-02f,-1.46998065e-02f,
    -5.50138392e-03f,-6.14347868e-02f,-5.13442792e-03f,-9.20989439e-02f,-3.00574321e-02f,
    -1.08022213e-01f,+3.25251929e-02f,+8.25975984e-02f,+6.85195103e-02f,+4.11627106e-02f,
    +5.15508093e-02f,-9.12805125e-02f,-1.07552186e-01f,-2.81582475e-01f,+3.38022076e-02f,
    +4.37245965e-02f,+4.35923301e-02f,+2.79989112e-02f,-5.51900752e-02f,+1.31166399e-01f,
    +8.55501667e-02f,-1.12811737e-01f,+1.11041665e-01f,+5.21584786e-03f,-1.09067205e-02f,
    -1.23294294e-01f,-9.42525193e-02f,+1.61732599e-01f,-1.79676637e-01f,-1.46325573e-01f,
    +5.55861443e-02f,-1.50317788e-01f,+3.65160257e-02f,-5.33233993e-02f,-6.77303076e-02f,
    -1.44908875e-01f,-1.89988539e-02f,-5.13242558e-02f,+1.18401006e-01f,+1.04356565e-01f,
    +6.09836876e-02f,-6.07650215e-03f,+5.13124233e-03f,+4.20058854e-02f,+4.33049463e-02f,
    -2.18419194e-01f,-1.32356063e-01f,+2.17236914e-02f,+1.04402207e-01f,-4.02235277e-02f,
    -9.74853784e-02f,-4.46941815e-02f,+4.16585244e-02f,+6.80171773e-02f,-1.29227564e-01f,
    -1.68610424e-01f,-3.70209627e-02f,-4.99759950e-02f,+6.33110758e-03f,-6.03542291e-02f,
    +6.71787858e-02f,+1.78509094e-02f,+4.88398485e-02f,+3.86799499e-02f,+6.86983988e-02f,
    -1.17190078e-01f,+2.11332552e-02f,-2.87389010e-02f,-4.31448855e-02f,-2.94414442e-02f,
    -2.19883487e-01f,-1.16395786e-01f,+5.53303808e-02f,+1.48659747e-04f,-8.23092684e-02f,
    -2.33894929e-01f,-7.26585463e-02f,+1.44355327e-01f,-2.41549332e-02f,-2.00163916e-01f,
    -1.35534674e-01f,+3.87657695e-02f,+7.10004643e-02f,+8.06889236e-02f,+7.22696483e-02f,
    -6.62568808e-02f,-3.83922197e-02f,+6.22142777e-02f,+6.16160482e-02f,-1.14343755e-01f,
    +6.25558197e-02f,-1.13938764e-01f,-1.90152302e-02f,+5.11384569e-02f,-4.42591542e-03f,
    -1.34524554e-01f,+4.08122689e-02f,-2.13911403e-02f,-1.75536927e-02f,+1.07841380e-01f,
    +5.31857274e-02f,+1.65672600e-01f,-1.15333088e-01f,-1.27578363e-01f,-5.64173050e-03f,
    +1.02174468e-01f,-8.96219984e-02f,+2.16364563e-02f,+4.74698842e-02f,+1.88520458e-02f,
    +5.85387573e-02f,+1.03141278e-01f,-2.15690527e-02f,-7.30679929e-03f,+2.78060436e-02f,
    +1.10296287e-01f,-8.80826041e-02f,+2.04005111e-02f,-6.84352815e-02f,-8.70422870e-02f,
    -4.56735976e-02f,-4.46865559e-02f,-8.06816816e-02f,+2.74955407e-02f,+1.87403504e-02f,
    -7.34966844e-02f,-5.39833121e-02f,+6.28420860e-02f,+7.07255453e-02f,-4.82954420e-02f,
    +1.02897614e-01f,-1.13656051e-01f,-2.03776527e-02f,+2.37279274e-02f,-7.88674131e-02f,
    +2.12974800e-03f,-3.34556885e-02f,+2.85851508e-02f,+6.70613796e-02f,-4.60149460e-02f,
    -2.70087510e-01f,+6.46847188e-02f,-7.09510967e-02f,-7.47365430e-02f,+7.84249082e-02f,
    +1.09313941e-02f,-6.69451952e-02f,+7.79403225e-02f,+5.42900413e-02f,+2.60148570e-02f,
    +7.36098830e-03f,-1.30175278e-01f,+3.70897097e-03f,-2.83443511e-01f,+7.61931166e-02f,
    +3.98960598e-02f,+8.84235352e-02f,+1.22978300e-01f,+3.22047286e-02f,-1.97905977e-03f,
    +2.18530726e-02f,-9.69117656e-02f,-7.29455426e-02f,-2.93831855e-01f,+8.07313770e-02f,
    +1.79404262e-02f,+4.46323082e-02f,+4.04915214e-02f,+1.78906526e-02f,+3.79654169e-02f,
    +8.23629573e-02f,-2.08377130e-02f,+2.18334012e-02f,-1.32494718e-01f,+4.05414216e-02f,
    +6.58854023e-02f,-6.99548274e-02f,+7.32875317e-02f,-1.80513207e-02f,+9.00593586e-03f,
    -2.38699764e-01f,+6.63860068e-02f,-9.55136046e-02f,-1.43757209e-01f,+1.49610549e-01f,
    +4.96343803e-03f,-1.16607241e-01f,-1.07661486e-01f,+8.87147933e-02f,+1.46232039e-01f,
    -1.86964322e-03f,-1.39772808e-02f,+3.78849767e-02f,+3.03557757e-02f,-2.36311913e-01f,
    -4.20745537e-02f,-2.74473608e-01f,+1.04115479e-01f,-6.73544768e-04f,+1.50297582e-02f,
    -9.97747332e-02f,+3.11955288e-02f,+1.75326522e-02f,+3.66582125e-02f,+1.28854886e-01f,
    -1.22769020e-01f,-1.60134062e-01f,+2.71248460e-01f,-1.32372633e-01f,-3.68962109e-01f,
    +6.97608292e-02f,-1.07828371e-01f,+2.06327252e-02f,+7.24111274e-02f,-1.65243939e-01f,
    -2.01460198e-02f,-1.31472141e-01f,+5.72219454e-02f,-3.49255875e-02f,+3.00266128e-03f,
    -3.31483372e-02f,+7.51645491e-02f,+2.32956372e-02f,+7.78822750e-02f,-1.30887866e-01f,
    +6.27417043e-02f,-1.31420583e-01f,+8.96998048e-02f,-7.81762823e-02f,+2.40248088e-02f,
    -2.97004879e-02f,-2.21111085e-02f,-2.65515417e-01f,-1.38337925e-01f,+1.60121560e-01f,
    -7.11276531e-02f,+2.37871066e-01f,+1.55256949e-02f,-4.81240749e-02f,-1.54228956e-01f,
    +7.39323124e-02f,-1.66271417e-03f,+1.21112473e-01f,-1.20264292e-02f,-4.09605540e-02f,
    -1.15939513e-01f,-1.23102576e-01f,+2.25139573e-01f,-8.36906359e-02f,-1.85048208e-01f,
    -1.08584315e-01f,+2.49235015e-02f,+5.21586239e-02f,-2.00655311e-02f,+5.57467937e-02f,
    -1.42421693e-01f,-2.79392987e-01f,+2.54706919e-01f,+2.14055236e-02f,-2.39345044e-01f,
    -5.05225547e-02f,-2.49840189e-02f,-8.48012939e-02f,-4.16519232e-02f,-2.32262924e-01f,
    -8.14050809e-02f,-1.61986157e-01f,+9.91298333e-02f,+6.98254704e-02f,+1.53638907e-02f,
    +7.60818347e-02f,+8.07769671e-02f,+4.01180424e-03f,+8.25239941e-02f,-1.43658563e-01f,
    +2.66622715e-02f,-1.60336748e-01f,+9.37558636e-02f,-5.08834049e-02f,-1.73428841e-02f,
    -1.13489524e-01f,+1.74116585e-02f,+3.85821126e-02f,+8.80318806e-02f,-2.38380238e-01f,
    -9.53287706e-02f,-2.02209443e-01f,+1.24987103e-01f,-4.72758748e-02f,-6.56638592e-02f,
    -1.43739590e-02f,+2.35023443e-02f,-1.98860541e-02f,+4.19702828e-02f,-9.05732587e-02f,
    +2.53511872e-02f,-9.57120955e-02f,+5.73600344e-02f,+8.27293321e-02f,+6.93838624e-03f,
    +3.36847417e-02f,-3.66507377e-03f,-1.01373136e-01f,-1.62015498e-01f,+4.15697768e-02f,
    -5.05580455e-02f,+8.90524872e-03f,-4.07464057e-02f,+2.18973570e-02f,+5.60648786e-03f,
    -1.39508694e-01f,+4.33213152e-02f,-6.87817391e-03f,-7.14443401e-02f,-9.11466777e-03f,
    +7.01992447e-03f,-2.69572854e-01f,+3.54084698e-03f,+8.25897157e-02f,+4.97020297e-02f,
    +5.46431057e-02f,-5.10768630e-02f,+3.43501046e-02f,-6.77854009e-03f,-5.87342754e-02f,
    +5.23861386e-02f,-1.18345827e-01f,-2.72434158e-03f,+1.07630149e-01f,+5.51546104e-02f,
    -1.15499221e-01f,+5.76428548e-02f,+2.13089911e-03f,-1.59190148e-01f,+1.06486708e-01f,
    +4.95350435e-02f,-2.85282964e-03f,+6.93022162e-02f,+4.15945984e-02f,-1.37087842e-02f,
    +3.60196754e-02f,-6.26600981e-02f,-5.99012896e-02f,-2.26015776e-01f,+1.27601307e-02f,
    -3.92660052e-02f,-3.18725146e-02f,+2.08452672e-01f,-2.57881172e-02f,-1.63029146e-03f,
    -1.30317152e-01f,-4.47368957e-02f,-6.69301078e-02f,-1.01974465e-01f,+1.86254531e-01f,
    -6.19869074e-03f,+2.39476964e-01f,-1.80708349e-01f,-8.19590986e-02f,-5.69380224e-02f,
    +6.00108765e-02f,-6.43532425e-02f,+9.09723691e-04f,+5.03226835e-03f,-3.70529853e-03f,
    +5.46560017e-03f,-1.14304937e-01f,+3.61676067e-02f,+1.23993838e-02f,+3.24789099e-02f,
    -4.38303454e-03f,-4.47088256e-02f,-4.97035980e-02f,-3.64271961e-02f,-2.08344846e-03f,
    -4.24717478e-02f,+2.80912388e-02f,-4.13612276e-02f,+4.56689522e-02f,+1.37458453e-02f,
    -1.62332468e-02f,-1.14971451e-01f,-4.15587239e-02f,-2.27888510e-01f,+3.18048261e-02f,
    +7.03697726e-02f,+5.55292033e-02f,+1.12084620e-01f,+1.24512780e-02f,+2.43272912e-02f,
    +1.89661793e-03f,-1.64373204e-01f,-8.95918086e-02f,+1.22258767e-01f,-2.59505697e-02f,
    -5.23436815e-02f,+1.54594770e-02f,-1.64106637e-02f,+6.28442094e-02f,+5.50189149e-03f,
    -1.14039980e-01f,-8.96923617e-02f,-3.20885405e-02f,+8.14516619e-02f,-1.83588918e-02f,
    -3.25627699e-02f,+5.43259680e-02f,-1.24179371e-01f,+5.93691394e-02f,+8.99052024e-02f,
    -7.65488297e-02f,+2.83754356e-02f,-1.02891751e-01f,-1.47072837e-01f,+1.75193623e-01f,
    +7.09714461e-03f,+2.63275169e-02f,-5.97211681e-02f,+8.53509456e-02f,+2.99802162e-02f,
    -5.51060066e-02f,+4.72470112e-02f,+6.15796335e-02f,-1.69544946e-02f,+8.63790512e-02f,
    +5.82011603e-02f,-7.81550333e-02f,+3.00022177e-02f,+3.79807241e-02f,-1.68202128e-02f,
    -1.95586100e-01f,-5.82417436e-02f,+8.59999061e-02f,+8.93438607e-02f,-1.78832591e-01f,
    -3.01861614e-01f,-1.62082106e-01f,+1.35906860e-01f,-4.00760472e-02f,-1.58555597e-01f,
    -1.06245272e-01f,-1.07833676e-01f,-2.66046785e-02f,-1.58444092e-01f,-1.06879370e-02f,
    +9.03299451e-02f,-4.32662629e-02f,-2.20419526e-01f,+9.82839018e-02f,+1.77359968e-01f,
    -7.36710802e-02f,-1.22903131e-01f,-1.88157801e-02f,-1.53788522e-01f,-3.99739854e-02f,
    +7.05665573e-02f,-2.08493486e-01f,+5.27902544e-02f,+1.31026864e-01f,+1.42502263e-01f,
    +6.55276282e-03f,+2.34644301e-02f,-9.74099413e-02f,-2.45643720e-01f,+1.01494893e-01f,
    +1.24576733e-01f,+3.54246795e-02f,+5.06028906e-02f,-4.03441116e-02f,-3.15061584e-02f,
    -6.82733506e-02f,-6.11220440e-03f,+6.35778531e-02f,+1.32316090e-02f,-1.26374304e-01f,
    -1.80600569e-01f,+5.12639852e-03f,+7.15520382e-02f,-1.42269686e-01f,-4.58479859e-02f,
    +4.11527567e-02f,-1.32371644e-02f,-2.85594892e-02f,+3.70194390e-02f,-1.01684257e-01f,
    -2.33163368e-02f,-9.23931524e-02f,+1.12392597e-01f,-7.57812336e-03f,-2.41346378e-02f,
    -8.44702423e-02f,+3.74217778e-02f,+8.33266228e-02f,+3.69512364e-02f,-3.14768225e-01f,
    -1.95790678e-01f,+2.76354309e-02f,+8.75899047e-02f,-1.38715267e-01f,-1.90634936e-01f,
    +2.33531408e-02f,-1.53228313e-01f,+1.79531183e-02f,-5.06791025e-02f,-1.37644494e-02f,
    -3.17706205e-02f,+4.34699096e-02f,-1.24434695e-01f,+8.29923432e-03f,+1.39107689e-01f,
    -1.60615042e-01f,-9.10688483e-04f,-6.45262823e-02f,-1.42370686e-01f,-1.07379861e-01f,
    -4.51508462e-02f,-1.18470587e-01f,+1.24928147e-01f,+7.19479397e-02f,+7.36798719e-02f,
    -1.53473228e-01f,-1.04185557e-02f,-1.30810011e-02f,+2.33848765e-02f,-3.12618688e-02f,
    -4.75065634e-02f,-8.62754434e-02f,+7.39281252e-02f,+4.03751619e-02f,-1.92812178e-02f,
    -7.39036947e-02f,-1.02821112e-01f,+5.48367128e-02f,+2.98694782e-02f,+4.88824137e-02f,
    -7.11762160e-02f,-6.22338280e-02f,+9.34088789e-03f,-9.99144912e-02f,+8.79640579e-02f,
    -9.54838097e-02f,-6.80326149e-02f,-4.87004630e-02f,-1.76951960e-01f,+1.05030045e-01f,
    -1.16750943e-02f,+3.44273113e-02f,-1.36905685e-01f,+1.60658136e-01f,+1.24156035e-01f,
    +7.22580031e-02f,-2.94811968e-02f,+1.09823886e-02f,+5.93254752e-02f,-1.44175932e-01f,
    +2.43619159e-02f,-1.68988183e-01f,+1.91888753e-02f,-3.33243199e-02f,-4.14102077e-02f,
    -4.27592173e-02f,-2.29178771e-01f,-1.50706291e-01f,-1.08120233e-01f,+4.40931767e-02f,
    -2.90210638e-02f,+2.01031730e-01f,-1.39305750e-02f,-4.73533310e-02f,+3.32234539e-02f,
    -1.09618530e-03f,-1.91225126e-01f,-1.41154245e-01f,-2.71863669e-01f,+1.62204459e-01f,
    +8.42020661e-02f,+1.22158222e-01f,-1.96724702e-02f,-3.25659700e-02f,+1.06605468e-02f,
    -1.60296056e-02f,-3.47787421e-03f,-4.24813421e-04f,-2.22409859e-01f,+2.47688413e-01f,
    +3.39864157e-02f,+1.11514024e-01f,-5.41596301e-02f,-1.40755167e-02f,-4.02470566e-02f,
    -3.96664217e-02f,+4.53630202e-02f,-1.82346329e-01f,-1.29637152e-01f,+1.99840426e-01f,
    -1.24932632e-01f,-3.79889086e-02f,+2.02098116e-01f,-8.36159885e-02f,-4.58868682e-01f,
    -2.38639727e-01f,-3.60192433e-02f,+1.68848168e-02f,+1.11884721e-01f,+1.28574848e-01f,
    +2.21701432e-02f,-3.61569822e-01f,+1.04433745e-01f,-4.44189906e-02f,-1.23066455e-01f,
    -5.78262433e-02f,-1.03382289e-01f,-1.02086842e-01f,-2.87288520e-02f,-2.18608398e-02f,
    -4.05360572e-02f,-7.39131793e-02f,-4.52423953e-02f,-2.90383206e-04f,+1.62101284e-01f,
    -7.63404369e-02f,-8.19768533e-02f,+1.59793541e-01f,+1.97966285e-02f,-1.06787998e-02f,
    -1.77090243e-01f,-3.08860987e-01f,+2.49523014e-01f,+7.21673742e-02f,-2.38054946e-01f,
    +1.82479415e-02f,-2.27573607e-02f,+3.22563387e-02f,-1.19850308e-01f,+1.38696050e-03f,
    -7.87925571e-02f,+3.87232448e-03f,-2.62605119e-02f,-4.54264209e-02f,-7.90617801e-03f,
    -1.12056974e-02f,-2.32637286e-01f,+7.91387707e-02f,-1.90500673e-02f,+6.12400360e-02f,
    -7.93721154e-02f,+2.04909388e-02f,-4.97406311e-02f,-1.61235556e-02f,+4.89020310e-02f,
    -5.30449748e-02f,-4.67656599e-03f,-5.99508127e-03f,-4.08463061e-01f,+2.51743514e-02f,
    +2.97077969e-02f,-4.46760692e-02f,+5.08733876e-02f,+1.50239795e-01f,+9.80956107e-02f,
    +6.67810142e-02f,-7.27540329e-02f,-1.05713913e-02f,+6.02155849e-02f,-6.37866631e-02f,
    -1.81550961e-02f,+6.10308014e-02f,+1.42122328e-01f,-3.89959151e-03f,-7.84133002e-02f,
    +1.63056329e-02f,-5.02410494e-02f,+2.09512878e-02f,-1.53565884e-01f,+3.75121385e-02f,
    +8.82822648e-03f,+4.03826348e-02f,-3.37586589e-02f,+1.90650634e-02f,+7.40816519e-02f,
    +6.35355785e-02f,+8.58101696e-02f,+5.86825460e-02f,-3.39103341e-02f,-8.98932740e-02f,
    -4.76013757e-02f,+1.09877368e-03f,+6.64624870e-02f,+2.00983137e-03f,-7.33428169e-03f,
    +5.34295179e-02f,-5.14958166e-02f,-4.04152982e-02f,+8.70935619e-03f,-7.12746531e-02f,
    +1.70036685e-02f,-5.83940593e-04f,+1.11952208e-01f,-3.32698300e-02f,+6.50023893e-02f,
    -1.62858143e-02f,-6.15231320e-02f,+5.80838658e-02f,+8.36948007e-02f,-1.64069906e-02f,
    -2.00760975e-01f,-5.53324297e-02f,-4.86812629e-02f,-1.27932355e-01f,+6.97315782e-02f,
    -5.81624582e-02f,+1.64221320e-02f,+9.09056701e-03f,+9.00364593e-02f,-2.67439783e-01f,
    -8.79479796e-02f,+4.27544378e-02f,+1.45614013e-01f,-1.01107739e-01f,-1.32577289e-02f,
    +3.32896821e-02f,-3.17999646e-02f,+2.52317023e-02f,-2.12531425e-02f,-1.91569656e-01f,
    -4.93215770e-02f,+1.11112051e-01f,+1.12981461e-01f,-1.36361659e-01f,+9.46256369e-02f,
    -4.49076109e-02f,+8.27727467e-03f,-1.26027510e-01f,+1.75516773e-02f,+5.25913127e-02f,
    -5.30416481e-02f,-2.04693293e-03f,+1.04858251e-02f,-3.87324393e-02f,+4.56554145e-02f,
    -8.53718258e-03f,+7.31162131e-02f,+1.18254209e-02f,-2.46600822e-01f,+9.35641751e-02f,
    +5.18294051e-02f,-6.47604913e-02f,+5.11968508e-02f,-7.85255060e-03f,+4.91753556e-02f,
    -1.27819642e-01f,+1.32482603e-01f,+9.75668281e-02f,-5.43935783e-02f,+1.19516505e-02f,
    +8.25489219e-03f,+1.11221768e-01f,-1.88241363e-01f,-1.01172917e-01f,-3.21921781e-02f,
    +1.89747158e-02f,-8.54727924e-02f,-6.23065345e-02f,-5.55425659e-02f,-1.12707816e-01f,
    -6.71025831e-03f,-8.02830830e-02f,+1.18294686e-01f,+1.13570809e-01f,+1.06118187e-01f,
    -8.77418593e-02f,+2.09282991e-02f,+5.58281802e-02f,+6.87707728e-03f,-6.89994618e-02f,
    +1.46839134e-02f,-6.67572320e-02f,+5.56895789e-03f,-9.32602771e-03f,+1.55706657e-02f,
    +5.96507192e-02f,+1.75366793e-02f,+5.94283044e-02f,-6.02080114e-02f,-1.61286727e-01f,
    -9.89661366e-02f,-4.14819866e-01f,-9.45412088e-03f,+8.27859044e-02f,+1.28063545e-01f,
    -1.30129486e-01f,+1.51536511e-02f,-6.05286956e-02f,-1.54413104e-01f,+2.99246293e-02f,
    +1.42455012e-01f,-1.09968102e-02f,+6.28337562e-02f,-3.08604892e-02f,+4.72047143e-02f,
    -9.09794345e-02f,+6.52723312e-02f,-8.25721025e-02f,-2.09323227e-01f,+7.14110285e-02f,
    +1.06129110e-01f,+7.27489740e-02f,-2.24130768e-02f,-3.64974439e-02f,-4.30673175e-02f,
    +1.29510209e-01f,+5.98895214e-02f,+2.38951035e-02f,+6.60504177e-02f,-1.66465551e-01f,
    -2.31452044e-02f,-7.52965882e-02f,+1.73341352e-02f,-1.11502275e-01f,+1.13415085e-01f,
    -1.67705685e-01f,-8.98013934e-02f,+3.17853689e-02f,-4.25627567e-02f,-4.97797877e-02f,
    -8.54561944e-03f,-1.00886136e-01f,-7.89445639e-02f,+1.66084856e-01f,+1.14565372e-01f,
    -3.73915327e-03f,+1.77406874e-02f,+4.57898602e-02f,+2.82875318e-02f,-1.89348578e-01f,
    +1.83894951e-02f,-1.10884301e-01f,+8.23440105e-02f,-2.71062814e-02f,+3.49419378e-02f,
    +3.48189212e-02f,+2.98951548e-02f,+6.20597415e-02f,-2.28269864e-02f,+2.13954151e-02f,
    -1.03091314e-01f,-6.32728934e-02f,+9.48188826e-02f,-3.01790033e-02f,-2.28649095e-01f,
    +2.92765945e-02f,-1.27301738e-01f,+1.07413739e-01f,-8.85818619e-03f,-2.80555427e-01f,
    +1.03725702e-01f,+6.35891482e-02f,+9.15511400e-02f,-3.14047337e-02f,-8.38255957e-02f,
    +1.57809025e-03f,-2.11934894e-02f,+7.53997043e-02f,+5.50388284e-02f,-6.31301012e-03f,
    +1.10173889e-01f,-4.99859005e-02f,+7.05105141e-02f,-1.20604970e-01f,-5.17038032e-02f,
    -6.00455217e-02f,+1.93348393e-01f,-2.29798779e-02f,-7.19738146e-03f,+2.06355244e-01f,
    -5.05035706e-02f,+9.55317095e-02f,-4.43306416e-02f,-2.33044699e-01f,-1.79530755e-01f,
    +7.62105361e-02f,-4.00433429e-02f,+1.34325981e-01f,-7.55878985e-02f,-1.56110406e-01f,
    -7.66917914e-02f,-1.91962481e-01f,+3.84679735e-02f,+7.47911725e-03f,-4.59407596e-03f,
    +6.43551815e-03f,-3.69822234e-02f,+1.21665403e-01f,-2.55082414e-04f,-7.07201213e-02f,
    -1.54439196e-01f,-2.82967389e-01f,+7.71963745e-02f,+9.17435735e-02f,-1.17089979e-01f,
    -6.62841350e-02f,-1.54048279e-01f,-3.63309123e-02f,-1.98643692e-02f,-6.22409359e-02f,
    -2.50420906e-02f,-5.89980260e-02f,+7.72740841e-02f,-2.95067132e-02f,+9.74445939e-02f,
    +2.59371493e-02f,-3.13968472e-02f,+9.16885287e-02f,+7.90665820e-02f,-2.34731227e-01f,
    +3.86422463e-02f,-2.14362934e-01f,+9.70231369e-02f,+7.73360766e-03f,+2.72054831e-03f,
    -1.52494431e-01f,+6.85374141e-02f,+3.90607715e-02f,+8.11871737e-02f,-1.59642071e-01f,
    +9.30178091e-02f,-1.24371290e-01f,+1.12504102e-01f,+3.03476062e-02f,-6.09281939e-03f,
    -6.90412009e-03f,-1.00116670e-01f,+5.28619718e-03f,-9.73897334e-03f,-2.02207658e-02f,
    -2.75583807e-02f,-1.96910035e-02f,+9.84273404e-02f,-8.27207696e-03f,+1.51566258e-02f,
    -5.87416999e-02f,+8.90929177e-02f,+1.07178740e-01f,-2.26024821e-01f,+1.04690425e-01f,
    +1.03401259e-01f,+2.33341441e-01f,-1.60122082e-01f,-5.54679744e-02f,-8.29537287e-02f,
    +4.77097929e-02f,-1.24937529e-02f,+5.88510185e-02f,-2.07856260e-02f,-1.39356658e-01f,
    -3.58533580e-03f,-2.40128398e-01f,+9.47620645e-02f,+1.44972071e-01f,-5.78053333e-02f,
    +4.71597500e-02f,+1.28732160e-01f,-3.69837955e-02f,-2.96240915e-02f,-1.22911766e-01f,
    -2.72552427e-02f,-1.80713143e-02f,-3.40572931e-02f,+2.08457187e-02f,+2.10131370e-02f,
    +7.70937130e-02f,+1.62216369e-02f,+2.47421637e-02f,-1.66055560e-02f,-1.48146451e-01f,
    -9.21473876e-02f,-3.58120948e-01f,-2.49397215e-02f,+1.59495234e-01f,+1.06555484e-01f,
    -2.36575101e-02f,+2.21759286e-02f,+6.12870418e-02f,+1.76276844e-02f,+8.00875425e-02f,
    -6.99633658e-02f,-1.58836842e-01f,+5.43706790e-02f,-6.75737411e-02f,+7.40342736e-02f,
    +1.71597600e-02f,-1.52487263e-01f,+8.13593045e-02f,+1.26369506e-01f,+2.57493794e-01f,
    +2.27123033e-02f,+8.57819915e-02f,-2.40425631e-01f,-1.03136450e-01f,-1.76464707e-01f,
    +1.20235756e-01f,-7.14807212e-02f,-8.01655129e-02f,-8.98038745e-02f,-1.45609314e-02f,
    +2.09861081e-02f,-5.17463200e-02f,+2.79466752e-02f,+4.09140475e-02f,-4.02291509e-04f,
    +2.33326890e-02f,+2.29935050e-02f,-4.71529900e-04f,+4.22780253e-02f,+3.38439234e-02f,
    +2.84139570e-02f,+5.17683849e-02f,-7.28677586e-02f,-4.03630659e-02f,+2.42258701e-03f,
    -8.48134235e-02f,+7.01104775e-02f,-2.01105941e-02f,-2.68161923e-01f,+7.47892112e-02f,
    +3.38176191e-02f,+7.43246153e-02f,-7.35812709e-02f,-8.64445567e-02f,-1.66068934e-02f,
    -1.31976306e-01f,-8.90878215e-02f,+6.86895028e-02f,+1.25179723e-01f,-1.86596019e-03f,
    -8.52240920e-02f,+7.15029910e-02f,-1.89644173e-02f,-4.23376188e-02f,+3.78813781e-02f,
    -1.82266161e-02f,+6.03950955e-02f,+4.78319684e-03f,+1.32176764e-02f,-3.06034163e-02f,
    -1.71661213e-01f,-2.70121600e-02f,-3.10264211e-02f,+7.92344883e-02f,+3.61978039e-02f,
    -1.34615704e-01f,+2.13766787e-02f,-3.23108695e-02f,-1.27479002e-01f,+8.94152746e-02f,
    +4.82600965e-02f,-4.68676984e-02f,-1.66634023e-01f,+4.37187441e-02f,+1.01849556e-01f,
    -3.09179481e-02f,+9.27680405e-04f,+3.89728397e-02f,-9.11981165e-02f,-9.26013812e-02f,
    -4.42008227e-02f,-1.83676541e-01f,+5.08633181e-02f,+1.98691636e-01f,-6.14049099e-03f,
    -1.64029092e-01f,+8.49703774e-02f,+3.76161821e-02f,+3.12284902e-02f,-3.32331836e-01f,
    -1.44942431e-02f,-1.89223439e-01f,+8.45525563e-02f,-1.33984700e-01f,-1.14168018e-01f,
    -4.58209664e-02f,-1.37480035e-01f,+6.46273270e-02f,-8.11515898e-02f,+3.29710431e-02f,
    +1.03979945e-01f,+1.12871066e-01f,-8.19647014e-02f,+1.06014669e-01f,+1.34987280e-01f,
    -8.69955495e-02f,-1.80858418e-01f,-3.52303609e-02f,-3.05505898e-02f,-1.26982778e-01f,
    +7.17738923e-03f,-1.62208416e-02f,+4.23633028e-03f,+1.27693936e-01f,+1.14236467e-01f,
    -1.42681003e-01f,+1.07082620e-01f,+2.18365844e-02f,-1.58930436e-01f,+1.92137137e-01f,
    +1.56463549e-01f,+4.82213534e-02f,-1.98243618e-01f,-1.38097787e-02f,-1.65885076e-01f,
    -1.27528027e-01f,-2.88312584e-02f,-2.74747983e-02f,-5.02223894e-02f,+1.01949563e-02f,
    +1.39906248e-02f,+5.32561839e-02f,+9.96242985e-02f,-5.99456532e-03f,-2.77112629e-02f,
    +6.77898005e-02f,+7.60816559e-02f,-2.30830647e-02f,+8.08166340e-02f,-1.08519807e-01f,
    -2.46503316e-02f,-9.73975882e-02f,+1.56282008e-01f,-4.71444055e-02f,+7.86720663e-02f,
    -1.34382993e-01f,+1.31759923e-02f,+7.16947764e-02f,-1.76241081e-02f,-1.65548593e-01f,
    +5.97030558e-02f,-6.35340139e-02f,+8.16926584e-02f,-1.07600473e-01f,-6.75212368e-02f,
    +4.43288349e-02f,-2.82592941e-02f,-1.02774486e-01f,-2.33365763e-02f,-2.02455483e-02f,
    -1.85957626e-02f,+7.35895038e-02f,-9.18159783e-02f,+5.00337072e-02f,+8.03314373e-02f,
    -1.55754704e-02f,-4.20754403e-02f,+5.13775907e-02f,-5.20354137e-02f,-1.64187387e-01f,
    -5.04712621e-03f,-1.47790462e-01f,+2.72251200e-03f,+1.01233661e-01f,+3.63032743e-02f,
    -9.13284868e-02f,-4.26880643e-02f,+5.36582023e-02f,+5.86397089e-02f,-8.73413533e-02f,
    -4.59367782e-02f,+1.53415827e-02f,+5.76451831e-02f,-4.03353609e-02f,+1.25985956e-02f,
    +5.06734774e-02f,+7.98621848e-02f,+2.33369134e-03f,+5.55687491e-03f,-1.79045200e-01f,
    -4.74788584e-02f,-4.90618497e-02f,+1.39029190e-01f,-1.40440553e-01f,+3.17380838e-02f,
    +1.51776709e-02f,-1.79930359e-01f,-1.15438644e-02f,-6.05379269e-02f,-2.85010412e-02f,
    +6.87733479e-03f,-1.14777282e-01f,-9.95188206e-02f,+1.58867195e-01f,+1.25124067e-01f,
    +2.02508140e-02f,-4.94268984e-02f,-1.67231057e-02f,+6.97518587e-02f,-1.70199111e-01f,
    -3.58605874e-04f,-2.06371754e-01f,+8.56602639e-02f,+3.26443128e-02f,+2.90323012e-02f,
    -2.49489415e-02f,-2.04322010e-01f,-9.51638594e-02f,-2.45289691e-02f,+1.02555707e-01f,
    +2.64579225e-02f,+5.73735498e-02f,+9.63843539e-02f,-1.19730700e-02f,+7.69797191e-02f,
    -3.27864587e-02f,+3.43040377e-02f,-1.27980672e-02f,-1.30694345e-01f,+6.51022792e-02f,
    +1.62286381e-03f,+8.75862166e-02f,+1.88356601e-02f,-2.84465123e-03f,-6.06708825e-02f,
    -3.73821631e-02f,+4.69917208e-02f,+4.86909188e-02f,-7.27457553e-02f,+1.25971913e-01f,
    +6.21250570e-02f,-7.45434985e-02f,-2.39257179e-02f,+3.86470780e-02f,-9.84243527e-02f,
    +4.58315350e-02f,+5.96365556e-02f,+1.47618309e-01f,+9.90301743e-03f,+3.68487798e-02f,
    -1.42508686e-01f,-2.81682700e-01f,+6.86023831e-02f,-7.89337903e-02f,-8.58702138e-03f,
    -4.14284132e-02f,+7.92910084e-02f,+7.00960979e-02f,+9.82934460e-02f,-1.60294831e-01f,
    -1.67981535e-01f,-2.74393201e-01f,+1.86987728e-01f,-3.55943777e-02f,-1.08477645e-01f,
    -1.88628118e-02f,-7.98741654e-02f,-7.07663223e-02f,+8.02773312e-02f,-3.58562395e-02f,
    +1.01712734e-01f,-1.15878284e-01f,-7.88085535e-02f,-1.66881382e-02f,+9.02224481e-02f,
    +5.18265665e-02f,-1.09204687e-01f,+1.13871433e-01f,+6.70641288e-02f,-1.04129523e-01f,
    -6.09137379e-02f,-8.47844705e-02f,+1.87181771e-01f,+5.45074493e-02f,-2.46098191e-01f,
    +1.08915053e-01f,-5.34967240e-03f,+4.97120619e-02f,-1.19744249e-01f,-6.03918731e-02f,
    -1.47152804e-02f,-2.73648407e-02f,+3.92099656e-02f,+3.11482679e-02f,+7.20343506e-03f,
    +1.43487547e-02f,-1.49795815e-01f,+5.94306365e-03f,-2.04996675e-01f,+8.03409293e-02f,
    +6.24479875e-02f,+5.13839312e-02f,+3.46541870e-03f,+1.30283728e-03f,+4.17505316e-02f,
    -6.72929129e-03f,-4.44515422e-02f,-2.26103794e-02f,-6.58982024e-02f,-3.33891772e-02f,
    +8.02994054e-03f,+2.22613923e-02f,-8.89758021e-02f,+1.35346934e-01f,+9.44761783e-02f,
    +4.93437424e-02f,+5.97023480e-02f,+8.87349993e-03f,-3.76071851e-03f,-1.74531173e-02f,
    +6.45936206e-02f,-2.88254558e-03f,+7.39267245e-02f,-5.07059991e-02f,-1.80644337e-02f,
    +4.94559258e-02f,+6.99175894e-02f,-3.06594595e-02f,-2.72722006e-01f,-8.53275787e-03f,
    +5.27672730e-02f,+9.50674564e-02f,-3.59570049e-02f,-9.97470096e-02f,+9.15254466e-03f,
    -5.07338904e-02f,-5.12055494e-02f,-1.66758467e-02f,+4.16045822e-02f,-1.78563312e-01f,
    -4.45436351e-02f,-8.68420452e-02f,+3.78997438e-02f,+2.60020550e-02f,+3.51246297e-02f,
    -8.28692988e-02f,+4.90807742e-02f,-7.55168796e-02f,+3.55074205e-03f,+5.31884506e-02f,
    +6.12641945e-02f,-6.30337521e-02f,+6.18470907e-02f,-6.33739680e-02f,+3.28186303e-02f,
    -7.65206665e-02f,+6.96291551e-02f,+7.19913393e-02f,-3.43973823e-02f,-1.92531794e-01f,
    +8.33792612e-03f,-3.49938162e-02f,+1.52435035e-01f,-8.76179263e-02f,+1.10794324e-02f,
    -1.13699056e-01f,+7.83636123e-02f,+4.99228612e-02f,-8.09898749e-02f,-7.48123750e-02f,
    +4.86661457e-02f,-1.43173626e-02f,+1.57537431e-01f,-5.93678281e-02f,+8.02141987e-03f,
    -3.85954604e-02f,-5.40886782e-02f,+5.76095246e-02f,+3.74616683e-02f,-1.57079712e-01f,
    +8.39713681e-03f,-8.11761618e-02f,+2.00392514e-01f,-1.65656880e-02f,+1.33332401e-03f,
    -1.84289683e-02f,-6.47535431e-04f,-5.82826957e-02f,-3.18604074e-02f,+2.92049777e-02f,
    -4.08156216e-02f,+9.08682216e-03f,-3.69793829e-03f,-7.10250363e-02f,+2.70314682e-02f,
    -3.08634602e-02f,+8.51533487e-02f,-1.31917298e-02f,-1.61285233e-02f,+7.03088567e-02f,
    +4.17412631e-02f,-1.59179837e-01f,-2.61149500e-02f,+4.50639017e-02f,-6.18417747e-02f,
    +4.83820140e-02f,+2.19513312e-01f,+8.31927359e-02f,-2.81353623e-01f,-8.11640359e-03f,
    -4.19170782e-03f,+1.56119630e-01f,-5.80183528e-02f,-4.95293103e-02f,-1.33954108e-01f,
    -1.11238614e-01f,-1.22254565e-01f,-3.73515813e-03f,+2.83907484e-02f,-1.83950141e-01f,
    +3.52595411e-02f,-1.47433616e-02f,+6.31096289e-02f,+1.32747233e-01f,+1.55615538e-01f,
    +1.98125793e-03f,+1.18351236e-01f,-5.49103990e-02f,+6.62391931e-02f,-1.27684116e-01f,
    -3.04161813e-02f,-4.22827341e-03f,+3.14364433e-02f,-1.10166714e-01f,+4.03039940e-02f,
    +1.07765302e-01f,-6.29383400e-02f,+1.13243923e-01f,-2.49389093e-02f,+7.79868290e-02f,
    +2.51080263e-02f,-1.09319016e-01f,+4.64494489e-02f,-2.95514558e-02f,-4.70516738e-03f,
    -9.85547621e-03f,+4.57587056e-02f,+1.14308350e-01f,-2.36821789e-02f,+2.84899697e-02f,
    -2.55645663e-01f,-2.88979352e-01f,-3.59439328e-02f,-4.65116799e-02f,-9.01282858e-03f,
    -3.01999897e-02f,+2.24355459e-01f,+4.14614007e-03f,-1.69811726e-01f,+1.16116047e-01f,
    -1.55810922e-01f,-6.60372004e-02f,-3.55903655e-02f,-1.33583441e-01f,-1.26505196e-01f,
    +1.36612682e-02f,-4.49395180e-02f,-5.88529110e-02f,+6.20806888e-02f,-3.63012739e-02f,
    -1.34474337e-01f,-1.51974872e-01f,+5.13505116e-02f,-1.04936741e-01f,+2.99666841e-02f,
    +9.58748981e-02f,-6.72263652e-02f,+9.09683704e-02f,-8.60556811e-02f,-5.49043603e-02f,
    -1.26400013e-02f,-1.83248982e-01f,+1.81243531e-02f,+3.91017161e-02f,+8.51633921e-02f,
    -1.68599989e-02f,-1.69942573e-01f,-1.32856090e-02f,+8.21747407e-02f,-1.61065459e-01f,
    +7.79034048e-02f,-1.04200328e-02f,+2.15431787e-02f,+2.26651430e-02f,+8.57489929e-02f,
    +1.14836350e-01f,+3.74342278e-02f,+7.22906888e-02f,-7.29934499e-02f,-4.72529158e-02f,
    -1.66801840e-01f,-5.57910763e-02f,-2.29653027e-02f,-5.24136201e-02f,-2.81930473e-02f,
    -2.28491351e-02f,+3.33129689e-02f,-8.38596150e-02f,-9.05203521e-02f,-1.53957322e-01f,
    +8.49887133e-02f,+5.00724232e-03f,+2.86887754e-02f,+3.52294780e-02f,+2.16081832e-02f,
    -2.50030053e-03f,-1.05689690e-01f,+1.03015769e-02f,-4.48022522e-02f,-1.53282806e-01f,
    +1.05597779e-01f,+2.23951340e-02f,+4.65537310e-02f,-4.02438827e-02f,+1.23148598e-02f,
    -5.12634702e-02f,+6.42681867e-02f,+4.57709916e-02f,+1.48576826e-01f,+4.74102497e-02f,
    -4.44578886e-01f,-3.81229036e-02f,-1.58729199e-02f,-4.97644469e-02f,+3.24002318e-02f,
    +6.34979010e-02f,+8.61736313e-02f,+2.78553087e-02f,+3.49005964e-03f,-1.32053286e-01f,
    -1.63245611e-02f,+4.53667380e-02f,+1.74999721e-02f,-8.16292837e-02f,+1.29866246e-02f,
    +1.18641436e-01f,+1.57505239e-03f,+1.02317922e-01f,-2.26693638e-02f,-5.25815412e-02f,
    -3.74641940e-02f,+2.75289044e-02f,+2.60401219e-02f,-1.07004687e-01f,-1.68836154e-02f,
    -2.44906507e-02f,-2.08928108e-01f,-7.63232484e-02f,+6.26879185e-02f,-1.88038126e-01f,
    +3.12708952e-02f,+1.74345709e-02f,+8.41051936e-02f,+9.29134246e-03f,+2.53811516e-02f,
    +6.28152266e-02f,-1.80289611e-01f,-1.58290416e-02f,+3.02253235e-02f,-2.55231500e-01f,
    +1.29749686e-01f,-1.76043902e-02f,+9.41999033e-02f,+4.41325568e-02f,-3.28310914e-02f,
    -8.34296867e-02f,-8.95243895e-04f,-8.49940702e-02f,-6.98255450e-02f,-2.88680136e-01f,
    +1.37800127e-01f,+4.29021716e-02f,-1.33920267e-01f,+2.97589321e-02f,+3.23326848e-02f,
    -4.10690196e-02f,-1.66187465e-01f,-3.90341058e-02f,+5.45279533e-02f,-1.21875502e-01f,
    +1.25871152e-01f,-1.46261910e-02f,+5.21315522e-02f,+6.01460375e-02f,-1.97747611e-02f,
    -1.98057681e-01f,+1.79475784e-01f,-1.56820454e-02f,-1.79757439e-02f,+2.12745562e-01f,
    -2.47933105e-01f,+7.81250671e-02f,-1.42761186e-01f,+4.27962802e-02f,-1.58524543e-01f,
    -3.61904912e-02f,-9.73715037e-02f,+3.84061337e-02f,-5.35068922e-02f,+2.90513393e-02f,
    -4.25991006e-02f,-7.79091055e-03f,+1.38118863e-01f,-7.94956312e-02f,-4.15570363e-02f,
    +2.54933676e-03f,+2.50529144e-02f,-5.16947024e-02f,-1.44575704e-02f,-1.01804160e-01f,
    +5.97481951e-02f,+4.67197895e-02f,-6.62524253e-02f,-6.21240921e-02f,+3.38465758e-02f,
    +5.28933033e-02f,-1.13985896e-01f,+8.49694610e-02f,+1.16537511e-02f,-1.14892423e-02f,
    -4.09959145e-02f,-2.16626704e-01f,+5.23001179e-02f,+7.24025117e-03f,+2.55920384e-02f,
    +4.86611687e-02f,+5.68996668e-02f,+5.24558723e-02f,+6.46799803e-02f,-8.02095328e-03f,
    -2.37541884e-01f,-2.35681608e-01f,+4.21862025e-03f,+3.13339308e-02f,+6.87545165e-02f,
    -3.67626920e-02f,+3.58770862e-02f,-1.93136875e-02f,+5.78044206e-02f,+5.72538041e-02f,
    -2.95576930e-01f,+4.87176031e-02f,+4.53538261e-02f,-7.07596093e-02f,-7.31321722e-02f,
    +4.12985831e-02f,+1.18071763e-02f,-1.08288370e-01f,-4.11419496e-02f,+1.72643922e-02f,
    +4.17222381e-02f,-2.09639445e-02f,+1.71829201e-02f,-1.28138205e-02f,+6.75954297e-02f,
    -1.21217161e-01f,+4.15718788e-03f,-1.14463836e-01f,+2.31307070e-03f,+5.96017316e-02f,
    +8.23896099e-03f,-2.36739814e-02f,+7.83049688e-02f,-1.74370743e-02f,+2.50844564e-02f,
    -4.01644185e-02f,+1.98037207e-01f,+4.31379862e-02f,-1.11223407e-01f,+1.42374933e-01f,
    -4.97889444e-02f,-6.43609241e-02f,-2.38640774e-02f,-1.02464817e-01f,-3.20769548e-02f,
    -6.33615777e-02f,-1.14963152e-01f,+4.05969396e-02f,+1.50150388e-01f,-2.56546885e-02f,
    +7.99580198e-03f,-4.04771511e-03f,-6.52779341e-02f,-4.31206040e-02f,+1.73806865e-02f,
    +1.06285641e-03f,-1.09387994e-01f,+2.03583129e-02f,-1.46463537e-03f,+6.61622174e-03f,
    -1.21083297e-01f,-2.98384447e-02f,-8.23567715e-03f,-3.44712809e-02f,+3.83988768e-02f,
    +8.72566551e-02f,+1.37173340e-01f,+1.23097107e-01f,+3.95009145e-02f,+1.48791760e-01f,
    -7.59791806e-02f,-3.18713486e-01f,+5.85336518e-03f,-5.20617627e-02f,-1.02943726e-01f,
    +1.11744344e-01f,-4.70346473e-02f,+1.20000258e-01f,-5.79262599e-02f,+1.16641194e-01f,
    -4.14732797e-03f,-1.23869359e-01f,+7.49803409e-02f,-2.00805534e-02f,-5.41921332e-02f,
    +2.15828549e-02f,+3.59218121e-02f,-7.07087517e-02f,-1.19867660e-02f,-2.47449756e-01f,
    +1.53158739e-01f,+1.59647375e-01f,+1.40308350e-01f,-1.70923501e-01f,+3.80031727e-02f,
    -1.70563787e-01f,+1.51539268e-02f,-1.52828768e-01f,+6.34246543e-02f,+1.09671190e-01f,
    +7.20062405e-02f,-9.74922255e-02f,-9.37203318e-02f,+2.01049373e-01f,-5.74193895e-02f,
    -3.08621384e-04f,-2.00362593e-01f,-7.40996050e-03f,+1.45119093e-02f,-2.21960947e-01f,
    +6.27662241e-02f,-2.98547521e-02f,+5.18453196e-02f,-2.39335536e-03f,-2.74917986e-02f,
    +1.22760441e-02f,+1.37394503e-01f,+9.42383185e-02f,-1.08263856e-02f,+2.59096414e-01f,
    -1.92963913e-01f,-1.34236053e-01f,-3.25956270e-02f,-2.27471106e-02f,-6.30920157e-02f,
    -6.21130690e-03f,-1.15965210e-01f,+2.07190849e-02f,-4.88365367e-02f,-5.97012974e-02f,
    +7.38493055e-02f,+6.94498373e-03f,+8.76026675e-02f,-4.41860035e-03f,-1.79983769e-02f,
    -4.87935077e-03f,+1.04519002e-01f,-2.33188212e-01f,+7.74791837e-02f,-1.23390496e-01f,
    +8.15247968e-02f,-1.38244376e-01f,+1.33472681e-01f,-3.88688818e-02f,+8.21104869e-02f,
    -3.59557867e-02f,+1.73767318e-03f,-3.67738754e-02f,-1.68695793e-01f,-9.63573456e-02f,
    +2.49570906e-01f,+9.02699158e-02f,-1.53753370e-01f,-1.68851614e-01f,+4.12375629e-02f,
    -5.58607094e-02f,+4.28762883e-02f,-3.52589451e-02f,+6.74118176e-02f,+7.82999992e-02f,
    -3.45066376e-02f,+7.68148527e-02f,-7.54805729e-02f,-3.99025306e-02f,-4.45441809e-03f,
    +2.67796516e-02f,-6.34959713e-02f,+2.68680453e-02f,-4.10312153e-02f,-1.43707752e-01f,
    -4.16477546e-02f,-6.34426400e-02f,+4.53547239e-02f,+4.79339994e-02f,+3.30043361e-02f,
